2.9649646,-2.5803638,0.5962232,-6.327836,-4.527936,2.807353,-3.4753509,-3.050815,-3.9913862,-10.746341,-9.216389,-4.6838126,-3.098988,1.5743127,-2.6472116,2.5323052,-5.448115,-6.9920707,-5.47506,8.478297
1.1880741,-1.0843384,-9.989666,-5.806707,-13.505783,-2.002378,1.5645845,6.637111,9.401679,-5.72145,5.075762,-13.145864,-6.3828907,-3.558276,2.3611329,-2.9300559,-16.593712,-11.57292,-13.909456,-11.210052
-3.5093055,-1.0082858,-1.8218213,-0.39790317,0.8436047,1.5853677,0.64935464,-2.094829,-5.016726,-1.055325,-2.7787807,-10.961237,-6.946577,-16.62982,-8.381188,-9.269789,-7.5116014,-4.626816,-7.4365134,-11.585289
0.71793365,6.0484037,4.592813,-1.7126634,-4.4831457,-3.6151686,2.573951,-2.9089992,-0.7399946,-7.5334034,-14.452587,10.936084,0.2674346,-0.1988131,-12.052542,-15.386921,-3.6969078,-4.6097074,-8.835349,-7.880072
-3.905136,-3.320056,-5.8489904,8.627493,0.7882761,-0.41097477,5.8837037,-1.7953433,9.021213,-1.3566716,-1.4741938,0.8409877,-0.65527904,1.6339834,-14.086488,-8.079131,11.541003,-1.910228,-4.9387655,3.0648358
0.55881304,-0.4564531,2.4970179,1.765245,0.9265565,-2.0429537,-3.2016053,-1.3451614,-0.8646033,-3.0331404,-2.3707285,-4.956869,-1.0493126,-5.5323825,-2.2622166,-3.1437786,-5.9199038,-0.13618723,-2.9750352,-5.3304067
-6.3839855,1.1062315,-0.3656329,-0.2189493,-0.3235822,11.580657,-5.0585217,-3.0451543,-3.2602546,-9.414915,-5.16456,-7.7999015,1.712305,-15.459554,-7.6467485,-5.701239,-10.460498,-6.4354663,-12.45421,-24.275791
-2.2451942,0.28861842,-0.6324721,-0.75165904,2.3808699,1.057373,0.3380398,0.11031669,6.5714197,-1.5549144,-5.7741895,-7.9540997,-5.7354884,-5.276609,1.7211471,2.7572486,-1.2022623,6.887138,-3.3615367,-1.2668495
0.41557935,0.673942,2.9167066,-1.107079,-1.346439,-4.866987,-0.21630383,-0.9292049,-4.899503,3.5846686,-1.4433727,0.36825013,1.3956486,-5.577974,8.745723,0.9870374,0.030004507,-1.252684,-2.2176697,-2.6875813
-3.0216796,0.0731539,-10.330412,-16.648294,-13.861104,-13.941523,-9.692637,-8.226158,-8.094009,-7.94385,-10.494827,-4.9163966,-10.899066,1.0271171,-10.949201,-2.2149115,1.4852698,2.990718,-3.0011547,-2.175012
0.25873524,0.9541454,0.87674856,0.40989736,-1.0679916,-0.5311895,0.015055606,-0.2774874,-3.8635654,0.1614483,-1.0687565,-4.104197,-2.3101156,-1.1153126,-3.701889,8.470105,7.9486904,-1.3912766,2.857032,-0.29731828
2.208731,-2.2545388,-6.50536,-15.746595,-10.547379,-11.35998,-3.8960733,1.3041548,-7.776313,1.095934,5.0526767,4.117301,-6.318063,-5.4750323,-8.857381,-1.8618027,9.054129,1.7813253,7.9987764,0.46492553
-2.062575,2.0068438,-2.1545076,-0.7623764,2.7432601,1.6789539,0.554274,0.33690253,-4.413454,-7.204665,1.2664056,-9.19875,-0.38445878,-9.128253,-2.4454958,-7.3215938,-4.6115737,-0.39709947,-7.2388716,-7.8071046
-0.745644,-0.9452827,-2.0637562,-1.6873375,-6.1902094,-2.540298,2.462522,-3.4977865,-5.245245,5.1478195,9.322444,-7.5390162,5.335242,-5.232886,-5.460536,5.1777534,-6.347293,0.58761764,-10.112226,-0.7314101
-0.3554976,4.2828383,-3.9125278,-1.1409409,-0.6249826,0.87965125,-2.933023,-5.8470044,-5.1725044,0.3062617,-10.058738,-3.256654,-3.1944602,-0.5177507,-0.8546092,-1.8661823,-6.2857676,-0.23027202,-11.996025,-3.7967246
-0.973688,-0.31940776,-1.1547155,1.8808506,-4.7320056,-0.42113778,7.4925756,-4.4083877,-5.979354,3.45911,3.9578447,-8.24034,-0.34746763,-6.032972,-2.8481364,5.222781,-13.900795,-1.5864189,-0.038106676,1.494025
-2.5436158,-3.8195224,-3.4311688,0.77520114,9.949682,-5.1390433,-3.4127238,-4.3723984,8.192967,3.8449187,-2.2005546,-3.86236,1.0469596,8.571897,-3.2670135,4.1569304,-12.42446,-2.6156745,-6.0960436,-4.3821006
-1.5789797,-0.46703395,0.16173336,1.0496066,3.151737,0.98134834,-1.1891233,-1.1875466,-1.9314592,0.89314795,-3.1478155,-9.399189,-5.434923,-7.0933304,-3.1610267,-7.847025,-3.855654,1.9641668,-3.8270485,1.5386208
-1.008023,-0.45518512,0.5490453,-3.07812,5.0744123,-2.1904907,5.601161,-5.9569755,-16.383429,-3.985896,-0.53252465,-6.866248,-0.5328171,12.96382,2.0185144,-8.253917,-9.81447,-4.845039,5.0162916,-6.039416
-0.0063258233,-0.6030798,1.6569049,0.6912715,-2.195008,-4.8431673,-0.15807404,0.52198005,1.4386753,7.6679435,-3.021786,-2.6380646,-4.9634566,0.6006465,1.9033161,6.531231,-6.387891,-0.79916006,-4.256023,-7.6582537
0.8317825,-1.94874,0.15821415,5.22481,0.262064,-1.2719462,-3.202619,-2.575792,-18.15086,-5.6156106,-3.347165,-2.6157434,-1.7347486,-10.887452,-12.839391,-9.676708,-22.528872,-4.210056,-1.5046545,-7.590543
0.9439912,-0.47311345,-1.7939787,-1.9104573,1.076725,-0.14590055,-8.137774,-2.5246217,-0.6972255,-8.633938,1.2675948,-10.219804,3.2698863,-5.3846154,-6.5693235,-2.908275,-3.7114425,-4.202165,8.800522,-6.0151787
-1.3255224,0.7623186,0.29984656,2.232892,0.8204744,0.16806716,-2.418697,0.10344128,-5.740903,2.9756253,7.006881,-1.3212379,-1.3311638,-1.3006738,-6.4270687,3.134189,-3.6218653,-2.4457698,3.5845125,-0.80334157
-2.8709445,1.4597722,3.482881,-1.2903807,5.766894,-5.7381034,0.47838202,0.58400655,-2.2765648,-4.6463127,9.7897215,-4.482162,-6.619965,-11.243038,-1.6573651,-10.692975,-2.5755055,-9.14511,-5.1263084,6.059793
-1.8874804,0.8412544,0.5743161,3.1630692,0.34419942,-0.18685395,-3.6266332,-1.9934355,7.2102094,-1.2178541,-2.3561316,-2.7570205,-0.41143626,-4.4810014,-0.89816934,-1.1693782,-9.984161,-0.356859,-7.40561,-4.11546
0.32281756,-2.766764,4.8985515,3.0380213,2.4999063,-5.1088533,-1.585344,0.22854097,-0.06504952,-2.0518332,-7.0943527,1.9657043,5.090808,-14.936275,-7.021292,-7.275453,2.6744206,-3.5604138,-5.414837,-10.027066
-0.45828825,-0.77883804,1.3384855,-0.25544766,-4.661255,-3.8179193,0.029486865,-3.3039694,-5.745058,-3.5649378,-2.9605916,0.3077103,-4.0975866,0.4140528,5.5526876,-3.447337,-10.829499,10.043959,-2.2521849,-6.3233886
0.35884187,-0.4779521,1.1927998,0.6568628,0.0813371,0.18513949,-0.008079628,0.13062376,-3.6613045,-1.0277281,2.407232,3.615433,-4.8761373,8.476645,1.4513103,7.048831,-5.051332,-1.7230607,-1.3776915,-3.3496134
-1.9990814,-2.3331757,0.5462211,-7.3582563,-2.566771,-6.2459073,4.213529,6.664954,-5.193629,-0.7775945,-7.5585003,-11.967678,4.396261,-2.6002345,7.2468553,-14.635028,4.08612,-0.42577115,-0.6663419,-8.597071
-1.688166,-7.5881963,-12.596618,-9.110696,-11.479362,-15.107994,-3.882208,-4.5208154,-5.378796,0.25781894,-0.13795026,-3.575232,3.187269,-2.7490864,-2.7419107,-8.538741,-13.67848,-0.9934345,-10.67039,-15.484205
-3.0634673,2.9247034,-1.2890956,0.8470649,-3.1160424e-05,-0.1920907,-5.915641,1.1793526,-2.2216995,-11.214113,-5.200815,-7.2420588,-3.324914,-5.7165704,-7.429978,-1.026083,-7.0033636,0.65317583,-6.0360823,-9.007151
-0.8525769,0.3574162,0.8107863,1.6178777,0.7678697,-3.6543977,-0.38430655,1.0129718,1.5237063,2.043985,-0.21004662,-8.440995,-4.4942575,-11.076812,-8.67585,-0.58437884,-7.7218304,0.65432364,-2.7880893,-10.652735
-2.8377247,0.17643417,1.3925718,-0.095531344,-1.082087,0.6351131,-2.6878452,-3.7556186,-5.421296,-7.2908134,-3.2676704,-4.7861,-5.813917,-21.730148,3.6277466,-13.488783,-11.401728,-6.9109797,-10.7568655,-7.7343087
-2.1857243,-1.0071032,-1.3668753,1.8916459,-0.48397022,0.5418481,-1.1499715,0.59675294,-4.216652,-8.082262,-8.170553,-7.7043366,5.7555895,-3.8339825,-8.483645,-1.3174597,-8.939883,-5.1645684,-11.075305,-3.9505332
-0.6779703,1.0684716,1.0273898,-4.4165015,-4.756037,-8.711143,3.0007749,-3.4506385,-2.0544498,4.7258277,-1.5259143,3.2170599,-1.1426929,-3.5857387,-7.4208746,10.251909,-0.857763,0.029024605,-5.5582404,-4.2984486
-2.2289314,-1.111791,3.9102087,0.40397322,-6.7745485,6.8735023,-2.75509,0.5622466,-2.0013888,9.266785,-0.36377802,-1.287925,-1.2536927,-3.3149724,-5.2987227,-10.678858,-7.522356,-7.358673,-10.936267,-0.2705835
-0.8688059,2.3589144,2.101709,3.0522833,-5.870432,-4.1108446,-6.7598786,-3.7125535,-12.465689,7.303599,-4.755217,-12.990762,-1.8915112,7.087501,-10.787734,5.2545733,-4.168758,-2.2362225,-5.1963205,8.750995
-0.18100695,-0.25476524,2.2518404,-0.4639471,1.684439,-2.2748528,0.5548108,0.08212769,3.9056013,5.138083,-6.493099,3.1220872,-5.035585,-4.442566,-5.0772824,1.4065398,-10.560413,-0.3415509,1.411344,-9.924247
-0.30066398,0.6788467,0.7269024,3.1488187,3.5061197,-1.8058002,0.9564925,0.4229879,-4.345718,3.2460694,1.9146392,-0.5827188,-2.4631438,-3.5272355,-2.5139802,-5.685456,-8.011537,-1.5157723,-8.803532,-9.539913
5.456187,-0.89185876,4.9569235,1.5355395,-3.8330402,2.483993,-4.1924458,-7.057961,-10.070326,-11.998451,-5.7745914,-3.0276017,-10.319008,-6.1604414,-3.6765163,5.9185452,-3.6598468,-6.5814266,-8.983546,0.14220406
-0.9462748,0.8209322,-2.1479118,-5.211083,1.5177431,-4.14922,7.517342,-3.8501744,-6.2893667,-3.595833,-5.034772,-11.12792,-12.402354,-17.263449,4.1195526,7.92342,-7.253871,-5.380286,5.908266,-0.5984982
-2.9615366,-1.4897821,-1.0652578,3.935402,0.00062921643,-8.273853,8.128866,2.4977195,-5.2119246,-2.6460936,-0.29671252,-11.408526,0.5742735,-11.231155,-6.336002,-4.4463453,-17.073174,-1.0811749,0.39100817,-12.875544
-1.9514645,0.98740965,0.3963165,0.4202877,-2.2131658,-2.4016547,-2.8223698,-1.5446411,-3.6020083,-4.0126595,-3.0971298,-23.924456,2.362255,-4.3059707,10.68105,6.866183,-3.745503,-1.1174123,2.1124768,-5.274814
-2.3434932,-0.7671011,0.7036053,-0.37705678,0.6863552,1.1788557,-1.8233646,-0.44480133,-4.412991,2.7128782,-4.8923674,3.793864,-0.3767267,-4.264939,-0.9446212,4.226545,-7.7422085,13.475161,2.5462759,-1.4725972
0.15687247,1.6267265,-1.4742048,6.4658394,-4.365622,-5.576795,-4.1350803,-0.87319875,-7.3588963,4.605127,1.2465048,2.831917,1.0267631,-4.5871625,-9.519766,2.710459,-13.005257,-0.48147663,-4.1887674,5.2719703
3.3306732,-2.4488883,-4.8197556,-5.763395,-0.59239715,-2.4365783,1.2610296,-5.2396073,-7.447558,3.2173352,-9.743675,-6.938292,-3.6635919,-1.4891961,-9.629123,-4.9566226,-8.269732,6.31021,-0.8262761,-4.3600545
-0.08873761,-2.468601,-4.7975097,-2.8408933,7.0927444,0.8038099,-1.5947038,7.626694,-5.173061,-5.1737404,-2.9594917,8.123718,-3.497534,0.37909657,2.6461558,-2.8069136,-5.4819975,0.6338181,-12.243137,5.2600965
-4.017665,-2.216075,2.909253,0.19613968,-6.6634717,-2.023717,-5.099305,-3.3350847,4.9293966,-3.6571727,-8.733807,11.11923,0.82832074,8.748718,11.419355,1.062081,-9.256883,-3.4806194,7.5459065,-3.8925908
0.8724664,0.0830514,-0.8299573,-2.497451,-4.0023746,6.6162395,8.286485,-0.26730523,-1.3691409,-1.403986,-0.3980304,-4.2846575,-2.2801394,0.18160965,-7.138992,5.558975,-2.4902053,2.7099805,2.1495612,-5.180207
0.17595346,2.0701118,-1.0609818,2.2488213,-5.713208,-6.9583178,-3.7651472,-2.204502,-0.9645667,10.24863,1.1327091,0.38635862,-6.911251,6.064435,2.876609,-4.960013,-6.079179,-2.787131,-11.871051,-3.9803448