0.82315433,-0.40258175,0.6853517,-0.33792904,-1.1033951,0.45473558,0.28209874,0.8334904,0.21442825,0.62685204,1.3080407,-0.04752618,0.09993162,2.7119675,2.1139936,3.0914075,1.9448195,-0.16763406,0.9714099,1.7450105
-0.01277222,1.0491903,0.91362274,-0.452044,-3.3806982,-4.3834066,-1.7220825,0.7273891,4.772323,1.7001972,3.6765878,0.9489141,0.6598424,3.604787,4.513517,1.5041671,0.9068327,-1.0370728,1.3098166,-1.1037358
-3.3920012,-2.4278736,-0.80914956,-0.57879496,0.8735483,1.480354,0.6748655,-1.0146234,-3.565475,-0.3716201,-1.6188118,-3.2943244,-1.243234,-1.5882357,-2.1494093,-4.2553916,-3.875706,-2.351239,-4.6395693,-6.9630256
-0.21093096,1.2076132,2.2943482,1.470124,0.52930045,-1.3217162,1.3142853,-0.03506675,2.8537984,1.2754884,1.0616807,5.1458707,-0.74263006,3.1476479,-0.48552433,-0.18786043,4.132,0.83756083,1.4046049,0.15109111
-0.9447851,-0.2720188,-1.429741,0.5825143,0.9889616,-2.0019677,2.6510847,-0.6056322,3.0275712,1.5924302,1.5184741,3.5242002,0.2546324,3.3963635,1.8053974,0.7276118,4.7287016,0.21063711,1.1770973,-0.3117466
0.0649477,-0.61717075,1.7423301,1.6059072,1.3735348,0.260831,0.78188694,-0.7368046,1.3189999,1.9260764,-0.24394804,0.24218774,0.4484892,0.45289415,3.74888,1.8169608,-1.3197776,1.5996174,-2.405781,-0.5583099
-1.7291543,-0.58649564,1.53004,0.21319051,-0.5244787,2.937894,0.58749497,-0.36943382,-0.36175862,1.4492538,0.46306854,-0.015415119,-1.1071812,1.5502001,1.6630112,0.41738915,-1.5135493,0.83289945,-1.5914955,-2.5699275
-1.2694303,0.07755961,-0.48393184,-0.20460798,0.14040641,1.1993235,1.6392326,-0.73616743,1.7381783,2.5563803,-0.2735009,0.38837522,-0.6695263,1.0883467,1.9027892,0.4621957,-0.80619794,2.3563852,-0.4920491,-1.4357172
-0.21619873,1.3654863,1.6362773,1.1641078,-0.8840753,-1.6122006,-0.35732615,-0.5586963,0.090301335,2.953591,2.0681436,3.4426606,0.8843621,2.2092705,4.3798766,2.754264,2.2828722,0.23131335,1.0126785,0.44405353
-2.7012722,-2.7081084,-9.020164,-11.6207905,-9.600231,-12.761129,-9.675651,-4.896389,-6.759898,-5.385503,-8.664872,-3.9967952,-8.630639,-2.632663,-7.613931,-0.8449925,2.5432012,3.1463683,-3.7263477,-3.9566414
0.22755456,0.8238779,1.5816069,1.53678,-0.02177366,0.08935334,0.84751356,-0.21607082,-0.7066263,1.3979503,0.98968637,2.1924202,-0.89369416,2.0094154,1.5197439,4.0820546,-0.23573378,2.186251,1.577085,-0.7739953
-0.5288955,0.13844094,-0.17797334,-1.5384803,-2.0910852,-3.617677,-2.9253337,0.8283755,0.5000043,2.121493,4.0964565,3.0999227,-0.5005342,2.1666355,1.1126109,0.9256353,3.073698,1.2085092,2.6145542,0.36349714
-1.8259836,0.5055536,-0.70522493,-0.41616005,0.99669677,2.0536351,0.3420579,0.7555613,1.6698445,-0.27972925,1.1240587,0.2024296,-1.2364984,1.1993935,1.1835151,0.2890726,-1.1673068,0.83973044,-2.8585384,-0.7899068
-0.51599514,0.16726741,-0.9212791,-1.7358279,-3.5079327,-4.767046,-1.0402532,-1.0973213,-2.3725536,2.4314444,3.5066917,0.063507535,3.0485864,-1.7453102,1.3734201,3.7079117,-1.8684555,0.65099275,-1.7271805,-1.2681522
-0.49295068,1.1043193,-1.3457667,-0.19277503,0.7511162,1.6903305,0.97223526,-1.9035336,-1.7222043,2.5557466,-2.167334,-2.432955,-2.8560781,1.8152384,2.9598815,2.047689,-1.8430189,-0.49076173,0.16658981,-0.3236792
-0.7022356,-0.1625835,0.014053637,0.7817834,-0.052463226,-1.5443809,3.4971848,-1.2138724,-2.0999084,2.0875816,0.11900893,-0.10536832,0.80682045,1.2638534,2.1254113,2.9031997,-0.064295135,2.351056,-0.82066107,-0.8117743
-2.3834565,-1.2063402,-0.26495674,-1.7598385,0.97983646,-2.5698276,-0.61327314,-1.0203359,0.5682085,3.8054314,1.337546,1.3766577,-1.4187806,2.6842334,2.0805912,2.9856546,0.7256471,1.1134745,-1.9063709,0.25748503
-1.5525216,-0.61406296,0.53050554,0.5344303,3.048783,1.1675702,-1.2637663,-0.8907195,0.17589477,0.5919658,-1.4179518,0.77582926,-0.36455262,0.80629563,2.254304,0.28724536,0.22864722,0.0035709408,-1.1053637,0.204165
-0.88127476,-0.00086820964,1.7559372,0.3980748,2.3801181,-0.24241798,3.1609268,-0.4795392,-0.5723524,2.1040442,0.77278686,1.0299853,-1.0099561,3.795977,2.9472263,0.025163276,2.5719435,-0.2956469,1.7761993,-0.124439605
-0.3615387,0.10121519,0.8248865,1.283702,-0.43832874,-1.976525,-1.1968468,0.016506003,0.988613,3.3977427,0.93927497,1.1847228,-1.0276052,2.15392,3.644184,2.929583,0.28810248,0.371345,-0.37071055,-1.9114635
-0.35896313,-0.35423535,-1.05403,2.3985624,1.8465974,-0.006582174,-0.13541444,-0.2758256,-2.8190346,-0.03190504,-2.3069193,-0.7985337,-1.6782978,-1.8090822,0.049574308,0.31864086,-4.197674,-0.58556956,-1.9820309,-4.4953437
0.13217998,-0.1574456,0.033780847,0.20144501,-1.5778449,0.47170913,0.94481313,-1.1057738,0.8583784,0.33010504,0.39366537,-0.43286866,-0.0651226,0.20557587,-0.48738053,1.6092238,-1.4790099,-0.7967911,2.742565,-1.5400982
-1.1979005,0.48060122,0.5233421,1.7304896,1.3974485,1.1042423,0.37286967,0.1378712,-0.087773696,3.264787,3.5443707,2.9362888,-0.3820161,2.830791,2.8397508,2.90054,2.6002748,-1.3801783,2.860792,0.37051678
-0.2836445,0.741425,1.2386663,-1.1958551,0.038737636,-2.7742743,0.95094544,0.40696657,0.4409162,1.6545781,4.455468,3.7627618,-0.2329519,2.2451065,3.1980104,0.008990126,1.021953,-1.9513681,0.18751456,0.74222493
-1.8209078,0.23895551,1.2211914,2.048282,0.69144535,1.3543926,1.3840153,-1.5682,2.0701325,1.66088,-0.18342596,1.9697077,1.57351,2.0356684,3.1384196,1.115299,-2.3982308,-0.35186976,-1.5661552,-0.24311902
-0.11472863,-1.3740405,0.82073206,-0.199401,1.3029736,-0.030471303,0.94861144,0.3620332,0.87597466,1.7445416,1.2259114,1.3626451,1.2911363,-0.08424181,2.1976316,1.9223809,-0.0021111364,0.14848742,-0.17443871,0.4607357
-0.967116,-0.6652564,0.46621916,-0.7757407,-1.5003058,-0.3692741,1.1873336,-1.9472698,-0.5545812,1.2578611,0.3017379,-0.03884422,-0.81944567,1.7826122,3.6109185,0.24481094,-0.61064285,2.8033426,-0.09170166,-1.34589
0.34083676,-0.43103355,0.036822032,1.2414412,1.3244249,-0.06386987,0.96112376,0.04601813,-0.65023655,2.4137414,1.7296674,2.7562659,-0.2377276,2.6841536,3.1409872,3.0344265,1.5644507,-1.1080317,0.85631275,-0.9679712
-0.024470713,0.26296973,0.61051625,0.3680246,-1.1525126,-3.715679,1.2127169,0.99632394,0.21498007,0.39282653,-0.39369455,1.4876616,2.2859309,2.0454977,5.5393467,0.20748363,-0.63034314,-0.77787787,-0.67055595,-2.904578
-2.971109,-3.0619056,-8.890732,-10.055926,-12.995873,-14.487197,-7.2245097,-4.8292446,-4.5966525,-1.1973069,-1.0516788,-0.27582535,1.0306944,-1.1961609,-1.7398204,-1.9829159,-8.437383,-0.70077735,-7.1445923,-6.289541
-2.525489,0.4361404,-0.3499187,0.79251975,0.21837465,1.2531016,0.5196051,0.6617266,-0.7847885,-0.20032349,0.08199571,-3.3730907,-0.4637093,0.23554239,-0.7198854,-0.36867064,-2.373567,1.6426507,-1.5644877,-2.714504
-0.78685236,0.32321855,1.6008146,0.5087841,1.1716795,-1.7369748,0.18245748,-0.14888087,0.5493357,2.2844841,1.3232038,1.2954904,-0.549112,0.8839823,3.0866947,1.5056735,-0.5849434,0.3003586,-0.58618546,-1.054997
-2.4315345,0.1543931,1.8057964,-1.4615518,-0.85531193,1.1572298,0.63589907,-0.31907946,-1.8746879,-0.5190154,-2.9563897,-2.2032745,-0.45129448,-2.2135403,2.5470934,-0.9361717,-0.43078318,-0.03414412,-3.6593776,-3.548724
-1.877383,-0.672594,-0.73594576,0.7913811,0.34855637,-0.7404118,1.5289165,0.0128579,0.029313475,0.011382372,-1.9039851,-0.21478112,3.6865478,-0.48279706,1.8855458,2.6475277,-0.5527829,-0.056401856,0.21765026,-0.6280479
-0.6221067,0.8828904,1.3195359,-0.77299005,-4.534939,-8.048289,-3.8962693,-1.4994947,-4.1309414,2.771895,-0.47602245,3.4989789,-0.10954243,-1.7413144,-0.7277083,3.764056,1.0144972,1.7286243,-0.7125168,-1.9757805
-0.8970975,0.12270424,1.0615555,1.6598561,-2.3299246,1.7254965,-1.6200093,-1.9505777,0.31494904,3.4203386,1.9484005,1.1462116,-1.2091166,1.3815106,1.5207756,1.6983371,-0.08807634,0.6153897,-0.3111582,0.73215574
-0.8433586,0.6998358,1.7000175,1.6458606,0.5961834,-1.833765,-1.0346131,-0.8095648,-1.9112287,5.159678,1.8378118,2.6820734,-1.4698741,2.9127047,2.4961627,3.905752,3.6820025,0.43634406,2.0368264,2.4202602
-0.17927547,0.30069363,1.032034,0.96404886,0.21499328,-0.005808015,1.3141079,-0.95296746,1.7929251,2.8144226,-0.77129555,2.8356216,-0.1944239,0.075366326,1.149009,2.9456835,-0.69778967,1.087612,0.99983686,-2.2330685
-0.2194055,0.80948,1.0931296,2.2888672,3.1166394,0.9602865,2.282833,0.7845016,0.2155104,3.9770513,2.577574,0.19881184,1.7353141,2.8550513,2.5850542,2.9116106,1.132518,-2.0134614,0.44045973,0.60804904
1.5088804,1.5624304,3.036141,2.124358,-0.9194175,2.5704377,1.2235821,-1.3811529,0.12678921,1.283629,-0.27067685,-0.3671323,-0.9326544,-0.7588038,3.1960087,5.0041914,0.35073343,0.87176305,0.7891089,-0.8619289
0.14450516,1.2465087,0.9101654,0.25600246,-1.8674055,-2.2338338,3.0558045,-0.65270764,-0.010160252,1.2156264,0.6372681,1.522767,-0.8851281,-0.3727077,3.773959,3.8798444,-0.23316072,0.51379824,0.8546231,-0.36359614
-1.9351712,-0.60918236,0.43353102,1.5724051,1.4631045,-2.5262346,2.7051396,-1.0467542,0.6738039,-0.49616125,-0.65238744,0.4907548,1.787312,-1.8300841,3.1922972,2.0151982,0.08468439,2.0048258,0.7916975,-1.8121866
-1.1723816,-0.33826768,1.5777786,1.0586196,0.38670453,-1.3167894,0.45238906,-0.58269334,-1.163687,2.4503946,0.46826866,0.911944,1.0526205,-0.0019625071,3.4809496,4.747535,0.39653847,0.047092635,0.17182261,-1.7067254
-1.2829741,-0.28946728,0.73390514,-0.5392625,0.63387024,0.9176044,-1.2348093,-1.701205,0.83068407,2.7102544,-0.28281265,2.3495204,-0.14832574,-0.13340151,2.715012,1.913921,-0.2802886,2.8936882,-0.52711326,-1.206275
-0.46674463,0.9551851,0.91576624,1.4547029,0.05906715,-3.0333793,-0.5014806,0.32436565,-1.1691984,4.5935907,1.654688,2.1866686,1.519157,1.7241645,3.001963,3.892838,-0.40202326,-0.552242,1.1629602,0.9109008
0.21468915,-0.99705535,-1.8387272,-1.0581256,0.15400063,-1.5686448,2.4552202,-0.47308138,-3.0514734,2.9270136,-2.3596342,-1.9827889,-1.6569614,1.9134895,0.28451994,-0.279965,-1.3865596,3.045807,-1.3542582,-1.3653752
0.0087443255,-0.606782,-0.16236086,-1.4097782,0.9673049,-1.192795,1.3374828,1.0559044,2.0676994,1.5848436,0.7458629,3.804576,-0.0075288005,3.4002914,3.5863798,0.026894107,1.5467428,0.5540508,-0.9796925,1.3143835
-1.947856,-0.8511569,1.2749858,1.1701242,0.59019613,-1.3118309,0.82795507,-1.0404336,2.5794752,1.9297197,-1.2142242,4.3248086,-2.1788268,3.0011928,4.411027,2.3239539,0.2077518,-0.54847926,-0.46747515,-1.8209976
0.32547215,0.097490616,0.5301694,-0.52152777,-1.6830996,0.19602884,2.4155388,0.0057931268,-0.36309817,2.4295068,-0.27903116,1.0271012,-1.8729112,1.724756,2.5868545,3.199233,-1.12398,0.60600674,0.71590596,0.25177908
-0.3906586,1.2043316,0.204741,0.3117683,-1.1541532,-2.7166271,-1.6229054,-0.93932116,-0.6385238,4.0249867,2.0501857,2.7606008,-2.8723245,2.7028594,2.6059935,2.2767947,-0.013109748,-0.6116339,0.2518028,0.16168052