2.9001522,-2.4127018,0.67338943,-6.298497,-4.5202837,2.7987838,-3.493901,-3.0481005,-3.9499178,-10.778655,-9.501775,-4.7168226,-4.0616207,1.5282483,-2.6606488,2.6018994,-5.443605,-6.944326,-5.525726,8.552963
1.1454362,-1.0072569,-9.852819,-5.9212456,-13.50247,-2.0943143,0.7869454,8.182215,8.161423,-6.5425143,4.3035784,-13.182681,-5.424282,-3.6306982,2.3031564,-2.8224561,-15.632455,-11.307148,-13.748253,-11.217511
-3.5107987,-1.016076,-1.7931939,-0.3994809,0.84268796,1.5595919,0.65449053,-2.0952861,-5.0121245,-1.058441,-2.8214655,-10.9775505,-6.9574027,-16.928873,-8.33441,-9.024413,-7.511182,-4.6177254,-7.4447446,-11.621703
0.675958,6.309463,4.9158416,-2.4869573,-4.4837503,-3.6283362,1.572982,-1.9148501,-0.68440676,-7.548357,-14.741283,10.861427,0.58200294,-0.35038748,-11.949945,-15.378492,-3.7042215,-3.8889577,-8.835915,-7.9006124
-3.9088843,-3.364129,-5.331722,8.710651,0.91774374,0.12024957,4.940849,-2.4498892,9.04112,-2.4423735,-2.54779,0.85418147,0.85124177,1.6145341,-14.083415,-8.108511,11.806061,1.2985579,-4.831121,2.978146
0.54077023,-0.9167357,2.9951875,1.6837331,0.91462046,-1.8904291,-3.136767,-1.3306487,-0.880685,-2.8222935,-3.5404954,-5.292292,-2.1989257,-5.5530415,-2.2471538,-0.47213542,-5.9276624,-0.4003475,-3.0302982,-6.2769246
-6.3563714,0.5949587,-0.13766949,-0.24061713,-1.0426115,11.669904,-3.5390701,-3.0262792,-3.268331,-9.446146,-4.612258,-8.1379,1.9304032,-15.514241,-7.6707025,-5.586578,-10.545732,-6.3958054,-12.456713,-24.3045
-2.278651,0.25702104,-0.65808976,-0.85825104,2.4707623,1.0232071,0.3610557,0.0799058,6.601505,-1.5679862,-5.7895164,-8.196388,-5.736381,-5.3478093,1.7289909,3.1010184,-1.0494492,7.4904227,-3.490158,-1.5112283
0.41551173,0.7302974,2.6464508,-1.1443524,-1.2790121,-4.8612165,-0.029437209,-0.92831326,-4.898825,3.6055532,-1.4043734,0.4409213,1.2781367,-5.572547,8.8315735,0.7970568,0.30420092,-1.2530116,-2.450999,-2.688581
-3.0277739,-2.1065693,-10.341563,-14.42137,-13.862004,-13.93592,-9.714365,-8.217556,-8.093838,-8.27282,-10.560234,-4.9167356,-10.976963,1.1379484,-10.956646,-2.1876335,1.4821141,2.9841366,-3.0015936,-2.1769552
0.25487655,2.0469391,1.2172265,0.3618241,-1.1665392,-0.5448536,0.5875942,-0.28142074,-3.783073,0.12749204,-1.5694542,-4.1544285,-2.3294992,-2.1751754,-2.8934772,5.472114,8.926472,-4.5265484,5.026514,-0.34579846
2.1295624,-1.1062766,-6.4662323,-14.757942,-10.4255905,-11.43948,-3.3274937,0.782269,-7.7892137,0.80479336,4.5663195,4.2087717,-6.3341885,-5.578139,-8.686072,-3.0042336,9.665869,1.2290981,8.04781,0.49688426
-2.0669146,1.8133569,-1.9098529,-0.8820227,3.2960856,1.548201,-0.42347428,0.327399,-4.4129434,-7.2942476,1.2285764,-9.2242155,-0.32823795,-9.371329,-2.4364717,-7.1131263,-4.600282,-0.7367649,-7.2515607,-7.8471437
-0.7972716,-1.1923836,-1.8365035,-1.8471112,-6.464755,-2.5599282,2.7051148,-3.5044227,-5.2382474,4.444949,9.847553,-7.5474,5.2643876,-5.2299085,-5.432654,5.8351626,-6.2619953,0.29379803,-10.314544,-0.7651267
-0.32710132,4.454332,-3.8377242,-1.1134423,-0.5549545,0.85480857,-2.6916614,-5.8889723,-5.175252,0.4533808,-10.128302,-3.4295623,-3.235671,-0.53885067,-0.82325876,-2.7096405,-6.474367,-2.146169,-12.4516115,-3.8248432
-0.9739618,-0.31989348,-1.2119504,3.1460803,-4.9527044,-0.43653664,6.856085,-4.4133916,-6.4973755,3.8192887,2.216726,-8.23547,0.49338195,-6.130501,-2.7602391,4.9375076,-17.940489,-1.5789738,-0.02727929,1.4867256
-2.5650418,-2.9090428,-3.3581774,-0.1407222,9.695841,-4.6555104,-2.6262167,-4.3802576,8.201326,3.6490116,-2.1640804,-3.87205,0.72541714,8.438639,-3.2662077,4.926765,-11.313389,-3.954065,-6.1050377,-4.421689
-1.5791872,-0.2717988,0.14935519,1.0751101,3.1522067,0.9593121,-1.2337313,-1.1866678,-2.0715718,0.8605126,-3.1891842,-9.5640135,-5.178006,-7.179029,-3.1027045,-7.7067165,-4.0833125,-1.1568263,-3.8705025,1.5392967
-0.5090999,-0.5803975,0.49195224,-3.4519546,4.9952326,-2.407663,5.7536216,-4.8877354,-16.528334,-3.9313936,-0.62525856,-6.916444,-0.6070815,12.855542,2.0294225,-8.371829,-9.826435,-4.8081627,5.0498495,-7.100006
-0.00772723,-0.60645753,1.7315813,0.61232966,-2.1965444,-4.8462877,-0.17107107,0.53320825,1.4133886,9.374191,-3.0180867,-2.6399465,-4.9655247,0.64488673,1.8978089,3.593399,-6.389436,-0.8039328,-4.2561045,-7.667458
0.19119658,-1.9788115,0.4315022,5.3736644,0.15606607,-1.3779082,-3.798525,-2.6359432,-17.910002,-5.694628,-2.8571844,-2.631541,-1.8595656,-10.939682,-12.738421,-9.401393,-22.633795,-4.222921,-1.6764189,-5.5102105
0.97766155,-0.5240337,-1.7103283,-2.7967076,1.4546413,0.13061546,-7.60025,-2.5932724,-0.74386495,-8.565814,0.64086044,-10.257762,2.7914972,-5.380196,-6.601551,-2.889437,-4.0214143,-3.9269977,9.027618,-6.019851
-1.3264248,0.7621356,0.2910592,2.238349,0.82029355,0.16982976,-2.3453598,0.10905904,-5.7935653,2.9032967,7.021027,-0.9663571,-1.3295959,-1.3036734,-6.47453,3.090888,-3.5948489,-2.4635987,3.6072266,-0.8087889
-2.8931103,1.3326163,3.3051128,-2.3172736,4.5900683,-6.091188,2.0164921,0.51004505,-2.2413516,-5.0041647,8.921551,-4.346273,-4.8116813,-11.316244,-1.564396,-10.695831,-2.4840224,-9.140525,-5.151505,5.9662733
-1.8872979,0.8426742,0.5756893,3.15875,0.34111655,-0.190813,-3.6127057,-1.9938395,7.3138676,-1.2063679,-2.4176593,-2.868083,-0.4203434,-4.482916,-0.87170297,-1.06021,-9.994701,-0.42342678,-7.41206,-4.578942
0.29590037,-3.1828368,5.7351027,2.4111295,2.6421862,-5.185914,-3.1395633,0.4332523,-0.07836241,-2.1157467,-7.155747,2.1283555,5.0526857,-15.024464,-6.126077,-6.3747663,2.5263433,-3.5255716,-5.442132,-10.122585
-0.45797607,-0.64274955,1.3394097,-0.54764664,-4.6636124,-3.8164804,0.22876652,-3.2828305,-6.0713143,-3.500712,-2.8230278,0.29111436,-4.2125497,0.18388665,7.1606984,-3.8846648,-10.816636,6.9509435,-2.6047342,-6.6702886
0.36272424,-0.4799392,1.2145938,0.65305847,0.07747819,0.21956329,0.50663877,0.13089068,-3.7015781,1.9513676,1.1340942,3.6012738,-5.0483136,8.400768,1.4587427,4.894125,-5.0615387,-1.766104,-1.3970729,-5.8722553
-2.02471,-2.226177,-0.5442268,-6.7278433,-5.4216714,-6.2073727,3.4914384,7.005903,-5.194029,-1.2602926,-7.408017,-11.984417,5.3101,-2.9116616,8.004307,-12.827008,4.8268213,-2.029724,-0.8107539,-8.65302
-1.6975867,-7.599302,-12.580965,-10.050732,-11.512706,-15.095198,-5.6139507,-3.7506423,-5.334343,0.82625115,0.28295568,-3.7337527,4.074471,-2.8367608,-2.74782,-9.222097,-13.787852,-0.8563948,-10.693453,-15.547619
-3.0921857,2.9770885,-1.1612604,1.2668177,0.026778655,-0.16632079,-7.6884484,1.9891973,-2.215015,-11.246351,-6.897106,-7.325322,-3.3417244,-5.70723,-7.444148,-2.0884569,-6.6552715,-0.20288728,-6.050338,-8.907911
-0.8582569,-0.5456196,0.7230625,3.3784502,0.9885597,-3.6344886,-0.59056145,1.030347,1.5210154,2.1120155,-0.31320846,-8.476985,-4.489234,-11.08688,-8.698431,-0.4417465,-7.7385564,0.62439555,-2.797631,-10.723662
-2.9201498,-0.108547375,1.1452453,0.4349608,-1.0757406,0.6759997,-2.6860802,-3.753385,-5.4224334,-7.24222,-3.2703104,-4.484216,-5.814616,-21.742884,3.6294727,-13.720368,-11.436421,-7.1254625,-10.756406,-7.7309837
-2.2089968,-0.44811553,-1.4553888,1.702328,-0.5083983,0.44163266,-1.6765642,1.1804564,-4.213812,-8.094736,-8.536406,-7.7373714,6.4843154,-4.1661897,-7.8918233,-1.7058161,-11.952703,-6.7663126,-11.060685,-4.00534
-0.6785919,1.0668234,1.0293194,-4.4102664,-4.7421227,-8.752994,2.9235013,-3.394874,-2.092397,4.459675,-1.5247352,3.2103937,-1.2588342,-3.5987964,-7.4306393,10.46516,-0.85845256,-0.06070191,-5.5561347,-4.255273
-2.2391725,-1.5101066,4.523218,0.19459593,-6.6331506,6.640112,-2.3828042,0.5003251,-1.9866667,8.851539,0.15308888,-1.3978745,-1.0958104,-3.3360276,-4.8828773,-11.287642,-7.664062,-7.327901,-10.935665,-0.30107895
-1.4023044,2.16113,1.2862189,2.9533381,-5.830891,-4.204781,-6.178304,-3.7279308,-12.474125,7.76868,-6.0005527,-13.0021,-1.7664349,6.7206774,-8.83652,5.599621,-4.076571,-1.8282913,-5.0605774,9.327732
-0.18134768,-0.263812,2.5880954,-0.5593545,1.7037314,-2.284196,0.56847256,0.07917365,3.9491384,5.8734274,-6.5288057,2.8595076,-5.08728,-4.4603424,-5.07763,-0.24419853,-10.564354,-0.8801074,1.4188815,-9.934961
-0.30052575,0.6726484,0.7268452,3.1122603,3.5799475,-2.0353963,1.1111817,0.4209217,-5.0326767,3.168214,1.8541454,-0.21338193,-2.4772356,-3.5814686,-2.371684,-5.5657563,-8.105591,-1.5331801,-8.739132,-9.610685
5.5283155,-1.0465106,5.9835606,0.061650626,-3.5271618,3.4699492,-4.2867494,-7.081762,-10.084169,-12.2234335,-5.853851,-3.1523895,-10.537269,-6.3609066,-3.674224,5.530439,-3.6720495,-6.64251,-9.076031,-0.13471037
-0.9474954,0.9555523,-2.4280767,-3.8572524,2.2199748,-4.546574,6.7133183,-3.3737001,-6.293069,-3.7144144,-5.0495825,-10.459087,-12.580625,-17.27127,4.3159165,7.732645,-7.260035,-5.3947725,5.7733045,-0.5951638
-2.9640799,-1.5843631,-1.1704029,4.3827114,-2.380552,-8.150678,7.2005525,3.5661087,-5.2021356,-2.8719265,-3.1084802,-11.457319,2.1243274,-11.245067,-6.338486,-4.4920044,-17.22996,2.2412965,0.4336385,-12.886461
-1.9070345,1.7194905,-0.15228844,1.0666397,-1.9177436,-2.4000356,-2.8325484,-1.6361275,-3.6990352,-2.6853852,-3.107728,-23.956383,1.5877626,-4.2979937,10.870414,6.6625094,-3.6987252,-2.1244044,1.701171,-5.3362827
-2.3851955,-0.3512051,1.0459789,-0.8579558,0.6869857,0.90112454,-1.8451151,-0.44813523,-4.381234,2.7057445,-4.934741,3.7235928,-0.37772208,-4.2954273,-0.8835563,4.2095246,-7.677434,12.992422,2.5971239,-1.9663701
0.11616057,1.6039547,-0.93069774,6.146275,-4.369599,-5.6761885,-4.3506603,-0.7902142,-7.347934,4.599446,1.2455969,2.796643,0.996454,-4.6229525,-9.189237,2.665207,-13.4557295,-0.061431915,-4.2106595,5.2842073
3.225157,-1.2341274,-4.8247848,-5.4106727,-0.5665103,-2.4144857,-0.18512157,-5.2375073,-7.429685,3.202799,-9.824045,-6.945602,-2.759506,-1.537031,-9.628197,-5.977651,-8.462788,5.5133724,-0.841662,-4.236635
0.5881504,-2.4771006,-5.1400313,-2.8507855,7.19224,0.6746795,-2.8420393,7.974961,-5.1988916,-5.1851954,-2.9681866,8.402637,-3.4616303,0.313685,2.6895213,-2.8365605,-4.945285,0.8166482,-12.242534,4.708011
-4.071787,-2.1638525,2.142906,0.5239013,-6.663698,-2.0371253,-5.488505,-3.5190244,4.9485383,-3.7126384,-8.352947,11.210022,0.80803996,8.604981,12.671671,1.0496379,-8.966495,-3.8436172,7.511507,-3.9028409
0.8726564,-0.017038243,-0.8482348,-1.7200302,-3.9979804,6.3112483,8.040972,-0.19021519,-1.7932544,-1.4224287,-0.38890028,-4.321945,-1.7573909,0.17495665,-7.1489544,5.510394,-2.505341,2.6772213,2.7733622,-5.230927
0.16981398,1.5282501,-1.518189,3.4529521,-5.7173967,-6.928739,-3.0335054,-2.2143302,-0.95733255,10.036864,0.7987945,0.41458338,-6.962908,6.057374,3.8304577,-4.9456716,-6.07902,-2.7865036,-11.932002,-4.132632