1.5951369,-0.5541335,0.18380871,-1.3349288,-2.3674467,1.5419695,-2.6596365,0.2221671,-0.7210309,-5.716347,-5.252778,-0.9124578,-1.592574,-1.4951397,-1.5662678,0.54362357,-3.2245822,-1.9372556,-1.155985,4.200425
1.0672741,-0.069811225,-2.7581022,-5.3062487,-5.0086374,-0.11239517,-0.19136944,5.389734,5.1111007,-1.7144225,2.1432216,-9.275895,-4.8115916,-3.1118417,0.9816078,-1.9229823,-8.164428,-8.3116045,-7.7622056,-8.266083
-3.4029815,-2.3825083,-0.8001196,-0.580909,0.88619965,1.4694667,0.6550695,-1.0694857,-4.27257,-2.1031117,-2.776468,-6.7512145,-1.386177,-8.575086,-6.1515765,-6.5776677,-7.8583198,-3.195369,-8.336903,-7.616005
-1.3484868,4.090849,2.7505715,0.95182973,-0.91651124,-1.1144919,2.784493,-1.3277141,0.60888714,-7.700244,-10.041053,5.3976417,2.2858799,-0.38815457,-8.013674,-8.674792,-0.7489172,-4.43595,-5.232121,-4.9695387
-1.8688456,-0.9967749,-1.2519939,5.248293,-0.16588643,0.26274496,3.322147,-0.61936164,4.8898854,-0.5396419,-2.648037,2.2573593,0.9897955,1.9958903,-4.0122733,-4.8736267,8.147191,-0.9347593,-0.81672114,1.8576931
0.06348277,-0.7436514,2.04014,1.5729663,1.3326461,-0.08071972,0.60558695,-0.8138482,0.43022186,1.2625335,-1.0200413,-3.8836095,-0.49129325,-1.5535026,1.112674,1.3742992,-3.4619732,0.585196,-2.5274105,-1.7650353
-2.197303,0.47384822,1.057479,-0.20446835,-1.3423733,7.1613874,-6.7041874,-2.4190786,-2.3912973,-3.5254862,-0.28775546,-6.152959,-1.723049,-7.000933,-4.179232,-2.9161959,-12.80819,-6.981967,-12.9286785,-15.136162
-1.2816213,0.17732301,-0.51967776,-0.22148332,0.20630175,1.1704346,0.42647544,-0.836882,1.4418639,0.28702593,-0.84751004,-1.5355492,-1.6436372,-3.7919266,-0.16502534,0.18854743,-3.4526412,5.009792,-2.0636833,-2.6821916
-0.19214293,1.3826936,1.5845605,1.0344881,-1.2163827,-2.086031,-1.218654,-0.6204534,-1.9114846,2.7251337,0.29825822,2.906899,0.9435861,0.50813574,8.533065,1.4565032,1.8360701,-0.08174625,0.32097057,-0.16509505
-2.9048822,-3.2334473,-10.07946,-12.850818,-10.858903,-13.967389,-10.869625,-5.592031,-7.2148547,-6.6927276,-10.165935,-4.8427396,-11.0086975,-1.8181655,-9.028078,-1.2872974,2.2884984,2.9396873,-2.9057217,-1.930711
0.24014346,0.8037635,1.7556113,1.3982966,-0.35911053,-0.118327625,-0.66583943,-0.25286326,-1.4634087,0.32327816,0.8365547,1.1710565,-1.7422104,0.83699656,-1.2305505,3.769158,1.9158665,1.2010217,1.4274819,-0.02555933
1.3460099,-1.4736252,-3.242862,-8.827633,-6.2033234,-8.428531,-4.953504,1.9184783,-5.138675,0.692357,2.6922715,1.8641473,-3.745738,-5.0361843,-3.3900647,-2.6889057,4.0676355,-0.34465566,6.324929,0.16822986
-1.8463978,0.7827194,-0.81804794,-0.47361296,1.3363347,1.9061852,-0.028937444,0.57817954,-0.56297606,-4.6325917,1.8280596,-3.4248507,-3.0243242,-7.1817303,-2.5137923,-4.858769,-7.724227,-0.68520945,-6.1390376,-6.6850724
-0.40659115,0.106704086,-1.269047,-3.1498973,-3.1755795,-4.935495,1.7714574,-1.9846884,-2.9473326,3.2482095,5.4912,-2.061314,2.582413,-3.7174425,-2.3935008,4.388249,-4.4463043,-1.8914789,-5.3570814,-0.20425344
-0.49792054,1.4528849,-1.4976046,-0.19549209,0.6734051,1.5368772,-0.3905123,-2.40114,-4.13768,-0.6015235,-2.916161,-4.4216475,-4.1687427,-0.09025837,0.6967352,-0.9523631,-6.7859373,-1.4063257,-5.855587,-0.6362944
-0.69657665,-0.15222512,-0.055146296,1.2117678,-0.5141221,-1.6186281,5.4477415,-1.2850163,-2.8011963,1.5087178,-0.20286742,-2.2217753,-3.0850673,-0.27694193,-1.4769919,4.1327424,-5.4677987,1.6058649,0.64334023,-0.9597256
-2.3803806,-0.77184856,-1.2206703,1.3615611,5.0944595,-2.044346,-0.1775828,-1.0217563,4.198368,3.139304,-0.24481764,-1.7713654,1.5751464,2.034128,-1.2273874,1.99798,-8.14067,0.79861915,-3.6112506,-2.5040736
-1.5562943,-0.5954216,0.5249273,0.5517198,3.0486066,1.1607753,-1.310408,-0.9138708,-1.1571026,-0.5250861,-1.499498,-2.0819397,-0.5721378,-1.2087566,-0.17804925,-1.5000961,-4.1404514,-0.20752628,-2.768959,-0.43254444
-0.92010045,0.4447794,1.3625023,-0.4394401,4.1971493,-1.2335707,2.0754664,-0.81404227,-9.970247,-2.969679,-1.2202947,-8.197135,1.2868643,6.3769197,-0.7267515,-8.304758,-6.46511,-1.7152028,2.3030348,-3.7664986
-0.36847416,0.08689919,1.2323695,1.1221846,-0.5964561,-2.7624843,-1.7342567,0.07667673,0.2592129,4.0144167,0.17364302,-0.63574463,-1.6793813,1.4035555,2.216759,3.3762014,-0.8644749,-0.40371433,0.074747056,-0.2902268
-0.3349496,-0.6810568,-0.43816718,2.880847,1.5787965,-0.093757086,-1.0914363,-0.76533866,-8.468493,-3.163724,-3.63298,-2.9370909,-0.73323333,-7.821388,-8.072688,-5.5659513,-17.834896,-3.4812367,-4.8124027,-9.209222
0.3746304,-0.18884408,-0.31007197,-0.37484393,-1.7875537,1.519764,-0.21210602,-1.3337839,-0.117718816,-1.3452885,-0.6744476,-1.7968595,-0.10387187,-1.735741,-3.4373033,-1.9230834,-5.1473684,-2.1554625,8.2307415,-3.8268425
-1.2110219,0.62015164,0.48075506,1.7350763,1.342275,0.7747968,-1.6251523,0.011014228,-1.5410202,1.8448294,5.784753,-1.8203503,-1.4544185,0.28359357,-1.7487371,1.9849594,-1.1591958,-2.2571344,5.0697536,0.29838812
-0.36946276,0.9244963,1.1183776,-0.9441853,2.640091,-2.7884665,1.1431618,0.86829585,1.530074,-0.37422222,6.47671,1.5167508,-4.653511,-7.0885205,0.44170102,-7.6898575,-1.1102893,-4.0827074,-3.2905529,1.8877612
-1.8378291,0.44883826,1.1564618,2.0084271,0.50544816,0.9949613,-0.8952172,-1.7631265,1.9957868,0.5585624,-0.7363769,0.38899964,1.6567869,-1.1743622,0.31885543,-0.9947865,-6.969219,-2.2514157,-4.143415,-2.0586383
-0.22926277,-1.8439486,3.537752,0.008734599,2.7487192,-1.0484662,-0.2767762,0.28420168,-1.594006,0.32508433,-1.771011,-1.539789,1.172517,-9.205453,-2.0001285,-0.9604767,-0.64873594,-1.8363047,-8.188876,-6.846412
-0.95387286,-0.70649093,1.1437589,-1.0690726,-1.7692498,-0.7803619,0.37994733,-2.0515547,-2.1854389,-0.30362827,-0.830467,-3.3649073,-1.3368366,1.1816583,3.8792005,-1.420686,-3.918081,4.9714155,-2.2522297,-2.9205077
0.35161737,-0.4328833,0.042842094,1.4264374,1.2711601,-0.1430494,0.23589242,0.022001104,-1.1292744,1.4851506,1.5874366,1.4063725,-0.37761337,3.5912564,2.301765,2.77068,-0.4757275,-1.4215418,1.3677897,-1.7213706
-0.22244556,0.15029636,0.087228976,-1.5536742,-1.548967,-3.6497824,3.0076735,3.6030755,-2.296407,-1.5077958,-3.8768554,-7.503681,2.2217658,-2.936608,4.128304,-4.6221924,1.2246516,-1.7766285,-1.9304804,-4.629504
-3.115898,-4.164805,-10.135457,-6.6286926,-10.526869,-14.303278,-5.1084423,-3.4466267,-4.010593,-1.1801596,-1.3423363,-3.376537,1.5991935,-1.4323177,-2.1216078,-4.1086683,-10.103962,-4.484567,-8.471265,-9.007252
-2.569854,1.0251539,-0.5060329,0.7633323,0.1770182,1.1026856,-0.9704594,0.49651134,-3.583732,-3.1523576,-1.7134662,-6.9797807,-3.1816583,-4.7811933,-5.337148,-3.1867404,-2.992337,1.7439038,-4.4908814,-7.5263047
-0.7946436,0.45642212,1.5539595,0.404017,0.9195964,-2.4061382,-1.6415039,-0.18316624,-0.23326257,1.6151078,0.63169295,-0.6269219,-1.3148737,-3.1057363,0.6641263,-1.3421735,-3.2211926,-0.51285625,-0.9191018,-3.8233557
-2.5150437,0.8352057,1.6709945,-1.483628,-0.89495784,1.0585071,0.09791863,-0.86797905,-4.1583753,-3.2856073,-4.3788524,-8.584674,-4.0008836,-11.285493,-0.94743925,-9.847084,-9.951181,-1.6562012,-10.3626995,-7.7239237
-1.95469,-0.58693105,-0.7817869,0.84792024,0.29006407,-0.79630935,0.8671986,1.2034769,-3.8832684,-2.5465512,-4.816511,-4.969017,4.2121735,-4.877277,-5.151503,1.7579732,-7.904832,-1.8128067,-10.07008,-3.9471998
-0.5951236,0.8690459,1.2621077,-1.0248103,-4.8239408,-8.33844,-4.0981193,-1.5492197,-4.62291,1.9835234,-0.7808637,4.704545,-0.5190272,-2.1374516,-1.5776813,4.1363735,1.0067773,0.48010603,-0.71774304,0.13550359
-0.8864893,-0.31387556,2.0381148,1.2019048,-3.1820471,4.4187226,-3.2039723,-2.3771167,-0.8194407,4.293203,1.33138,-1.382163,-3.18213,-2.3803754,-2.7524483,-1.53846,-3.7459412,-2.2280927,-8.28557,-0.17823946
-0.08398763,1.4194156,0.4892523,0.030231062,-5.370858,-2.2559865,-4.241393,-1.9311092,-8.0670595,2.7935252,-1.122075,-3.4723823,-0.4766119,3.5968971,-1.643046,4.583399,-1.1099072,-0.07644342,-0.20640713,5.2861443
-0.17083086,0.28984615,1.551834,0.83075994,0.11365366,-0.64894676,0.9358402,-1.1075945,1.5989292,3.812929,-1.3762137,2.590418,-0.37448925,-1.1128533,-1.496878,1.5611762,-2.0062473,0.1496296,0.28825217,-1.5296938
-0.23634455,0.8900684,1.0580406,2.58321,3.05246,0.77032757,0.98369664,0.7052403,-1.0610402,2.0446038,2.4452775,-2.465085,0.010737556,-0.19655183,-0.22028787,-0.26913556,-8.220809,-3.0013041,-4.147461,-3.5410225
2.61345,0.64130074,3.7167785,1.8721342,-1.3549516,2.7894082,-1.6508273,-3.4032784,-4.836198,-3.1777525,-4.9315147,-2.8522992,-4.4144583,-1.590595,0.15868264,2.1128643,-1.804938,-3.0084484,-7.1013803,0.32377893
0.34508517,1.1290159,-0.04641193,-0.9476441,-0.13176018,-0.30304122,4.7940416,-1.8357539,-2.4895864,-2.1079965,-0.8300836,-5.5118256,-6.0397654,-7.3448653,1.857826,6.884149,-7.63477,-2.0015464,4.5764756,2.019091
-2.1731052,-0.26800534,0.16194475,2.5124843,0.49859658,-3.306572,4.8378763,0.0003237957,-0.24239598,-2.8244529,-2.5381408,-8.353393,1.694462,-8.650683,-1.4340587,-3.2498016,-15.97173,1.6785421,0.30208763,-10.202383
-1.0254261,-0.20991558,1.562079,1.0059066,-0.005667799,-2.8915932,-1.7740738,-0.79556817,-4.42464,-0.103401944,-0.85243946,-6.8133426,0.32109,-4.070864,4.5731773,8.305019,0.040589,-3.550391,-2.47436,-2.133096
-1.2880083,-0.32055002,0.8159577,-0.5729903,1.1848527,0.787209,-2.878945,-1.8681406,0.24845432,1.9593077,-1.9437352,1.8054367,-0.19477145,-3.4033618,-0.4642088,1.6611354,-4.2260704,5.411832,0.4248694,-0.6633282
-0.4676341,0.9723651,0.8070582,3.5482898,-0.31428877,-3.4393573,-0.8893887,0.4314331,-3.117616,5.9205785,1.0968323,0.4014987,-0.60240877,-2.8253329,-1.4294505,3.2542284,-4.654052,-0.98924094,-3.019399,4.087439
0.8620049,-1.0892841,-2.4827116,-1.1196157,0.35995752,-2.0793684,0.52205324,-1.6408824,-4.713291,0.07764407,-5.3615556,-2.3561983,-4.99328,-2.4851172,-6.0151644,-1.9872059,-6.517097,5.4210634,-1.1847084,-3.7778435
-0.0654291,-0.62144434,-0.29537106,-2.506802,5.597008,-1.4428841,-0.36746842,1.75535,-0.50613594,-0.4545397,-4.202443,7.4992194,-1.5210093,2.540541,0.90541726,-4.327385,-3.0316465,-0.36842656,-3.678962,3.5277596
-1.9152026,-0.55164635,1.1194843,0.5724794,-1.9739418,-2.5830317,-1.0033861,-2.038123,3.6843863,-1.4059601,-4.966186,6.4839163,2.199813,5.86211,8.64616,2.8069048,-3.151951,-3.247842,3.6333477,-2.5314436
0.3501444,0.10668613,0.4599077,-0.6538491,-1.8136859,1.3393638,2.0457137,-0.033732217,-0.8882469,1.7881632,-0.7105367,0.5904345,-2.049702,0.886542,0.6293325,3.1071837,-3.1166658,-0.026249884,0.8439179,1.0707054
-0.3232497,1.3281233,0.042189118,0.7446919,-2.3131158,-3.1621532,-2.6896303,-1.1211351,-0.5723785,6.6842203,0.89112914,2.375919,-4.526768,1.4430254,1.4478171,0.4810288,-1.668782,-1.1618032,-4.1145425,-2.9609165