1.6757644,-0.5977801,0.14247279,-1.5277454,-2.4592302,1.6725328,-2.8694272,0.113906235,-0.7971877,-5.8540864,-5.4235935,-1.1905286,-2.2639208,-1.7988809,-1.6513708,0.39293483,-3.7108357,-2.0915112,-1.8371451,4.9565835
0.90851766,-0.08945155,-3.9520605,-6.044953,-5.151922,0.15158954,-0.47173122,5.3712926,6.430487,-1.4892138,2.0978718,-8.615299,-5.5158286,-3.41326,1.0504167,-2.5492365,-8.226973,-8.352502,-7.850016,-8.380565
-3.4034858,-2.3830042,-0.80074054,-0.58091056,0.8892832,1.4677399,0.65436435,-1.071353,-4.266774,-2.1223776,-2.7794259,-6.8336296,-1.3537829,-8.59198,-6.1643267,-6.582934,-7.857725,-3.1985745,-8.331796,-7.6187353
-1.8256136,4.6105223,3.1018875,-0.07877931,-1.5878847,-1.8741254,2.572763,-1.8712234,0.37057406,-7.8321075,-10.14127,7.0526996,2.6714444,0.02277601,-8.329577,-8.77729,-0.93499154,-4.552777,-5.383972,-5.123963
-2.0325,-1.5645916,-2.3553088,6.5900183,-0.26088402,-0.10450344,3.766884,-0.8644797,5.1493697,-0.8047976,-2.5991035,1.7868488,0.029265016,2.0295968,-4.224071,-5.6532946,8.990109,-0.85001093,-1.4337606,1.6363614
0.058808383,-0.7624564,2.0772336,1.560544,1.3233727,-0.050308887,0.48712,-0.81283444,0.41461557,1.0035518,-0.9856373,-4.0699663,-0.55201143,-1.6026778,1.1246095,1.3545866,-3.1308246,0.5811,-2.533826,-1.9066973
-2.249695,0.5982763,0.9334688,-0.29109776,-1.306067,8.051348,-7.059835,-2.5893688,-2.5631123,-3.623835,-0.39146376,-6.4449954,-0.3738993,-7.245103,-4.0236917,-2.9581404,-13.145968,-7.243992,-12.949863,-15.354211
-1.2839774,0.20960741,-0.52737284,-0.22460131,0.20998949,0.841459,0.29713652,-0.84715486,1.7210021,0.26741463,-0.85353976,-1.8580959,-1.5960121,-3.8703403,0.07112232,0.18493569,-3.4020262,5.2379203,-2.4735832,-2.6686308
-0.19263817,1.4464388,1.577398,1.0249802,-1.26064,-2.2603474,-1.2815062,-0.62629163,-1.9225078,2.834839,-0.7486314,2.842664,1.0099465,0.45508996,6.0037923,1.3514274,1.8454354,-0.08750632,0.27233434,-0.48732072
-2.8947482,-3.2345374,-10.094042,-12.8694105,-10.860884,-13.987359,-10.871309,-5.594405,-7.211661,-6.697049,-10.166205,-4.842622,-11.082209,-1.8009546,-9.03395,-1.287436,2.2887716,2.9396455,-2.9075675,-1.9311922
0.23650333,0.75844353,1.6681838,1.3225172,-0.73382837,-0.041470446,-0.71733624,-0.25839728,-1.4482085,0.22060716,0.88675547,-1.6813502,-2.2856963,0.829243,-1.244603,3.4156609,5.956158,1.172814,1.4273292,-0.06868471
1.9997147,-1.0618583,-4.2382894,-9.627733,-6.3415246,-8.544481,-5.3455915,1.604552,-5.2153206,0.21756634,2.623526,1.6260897,-3.697321,-5.5351725,-4.763768,-2.843401,4.6221943,-0.5596794,6.825535,0.47047007
-1.8502939,0.80666083,-0.83635604,-0.43953076,1.298155,1.8996533,-0.05545994,0.55497557,-0.5246342,-4.7907977,1.8349379,-3.6667686,-2.7419996,-7.227824,-2.5422485,-4.9707656,-7.770422,-0.734149,-6.0528197,-6.719189
-0.39978665,0.09565123,-1.3021001,-3.603684,-3.2839868,-4.618666,1.4882873,-2.1004689,-3.0212436,3.3078315,5.669993,-2.4602551,3.4836624,-3.9496837,-2.536652,4.424379,-4.309009,-1.9077464,-5.465321,-0.37238467
-0.48727307,1.690655,-1.6283207,-0.25095403,0.646733,1.380391,-0.71458626,-2.6260738,-4.5289326,-1.4686779,-3.8469083,-5.1690054,-4.0093474,-0.02424804,-1.1577668,-1.7831733,-6.721316,-1.3776842,-6.3926053,-3.3730516
-0.6968403,-0.15201783,-0.05264697,0.8900687,-0.5594246,-1.6348212,5.5998316,-1.29867,-2.8004103,1.7638355,-0.17133388,-2.6055427,-2.1221826,-0.22705537,-1.4995949,3.5589108,-5.7214723,1.602912,0.68622607,-0.994281
-2.4077642,-0.8800795,-1.4536285,1.3891104,5.6845856,-1.9878033,-1.651213,-1.0635473,4.444526,3.3752344,-0.3564071,-3.4418745,2.9411452,2.584716,-1.2082373,2.2672195,-8.173957,0.7432357,-3.714842,-2.8148682
-1.5564833,-0.5945901,0.52463955,0.552499,3.0478783,1.1605201,-1.3118154,-0.9154296,-1.1367753,-0.56359303,-1.4981645,-2.19588,-0.543913,-1.1923432,-0.17525178,-1.5290334,-4.1381273,-0.2115052,-2.7656422,-0.42691773
-0.8873699,0.47706792,1.3309685,-0.9235843,4.902858,-1.049297,2.380509,-0.99226123,-10.168986,-3.027849,-1.4781615,-9.614126,0.7051272,6.7143993,-0.88083804,-8.418489,-6.5371284,-1.8484191,3.1895914,-4.5052147
-0.36949956,0.08284279,1.3671659,1.0978779,-0.5970013,-2.8855877,-1.7333661,0.07300259,0.3867245,4.2661552,0.142329,-0.6878258,-3.2959454,1.4239606,2.2678294,3.2491896,-0.8595504,-0.40602377,0.07734359,-0.31403577
-0.31432343,-0.7698073,-0.46585643,3.0545688,1.5580454,-0.11579178,-1.3688163,-0.83893704,-8.694779,-4.4795823,-3.7219868,-3.7761233,-0.8548077,-8.111078,-9.189263,-5.743555,-18.100784,-3.5772104,-2.8538296,-9.485087
0.41652712,-0.20649812,-0.356011,-0.5290144,-1.7379842,1.7727647,-0.34658718,-1.4184715,-0.12108383,-1.4095213,-0.7118221,-2.0890465,0.16305602,-1.8818709,-3.5335262,-2.0102296,-5.29939,-2.2157319,7.48842,-4.1166687
-1.2132864,0.6249051,0.4800775,1.7328078,1.3410954,0.75629586,-1.6798457,-0.00700757,-1.489718,1.6334895,6.2470737,-1.9885279,-1.3991973,0.2679609,-1.7535163,1.9692386,-1.5622075,-2.2755554,5.9684706,0.291124
-0.47523734,0.9482029,2.542748,-1.8343718,3.303855,-3.070539,0.6448641,0.67886233,1.1963035,-0.78401405,6.922474,-0.39963803,-2.9157264,-7.209259,-1.3966587,-8.719642,-1.2050989,-4.1866956,-3.7137392,3.3527849
-1.8398733,0.4554208,1.1540041,2.001098,0.5021811,0.9809207,-1.0093054,-1.7870455,2.6738727,0.5368951,-0.7343813,0.15301505,1.779329,-1.1945133,0.33539668,-1.0145497,-6.9663424,-2.2994676,-4.1371794,-2.0704513
-0.2653493,-2.095683,3.9096987,-0.48296753,2.9757493,-1.253207,-2.2336826,0.27566138,-2.0807502,0.13045755,-2.1989045,0.026828557,2.884041,-9.979983,-1.9262409,-1.5513408,3.4694583,-2.0000262,-8.34003,-7.5100226
-0.9558998,-0.7151528,1.2234554,-1.1226337,-1.8051431,-0.8504005,0.5701501,-2.0673025,-2.090684,-0.39804584,-0.81799674,-3.4861264,-1.3651221,1.1946944,3.9904206,-1.4625614,-3.9213176,5.0825267,-2.3229818,-2.9720817
0.3511905,-0.43455887,0.04806043,1.4358741,1.2614926,-0.15749715,0.24500546,0.020605234,-1.1214919,1.4569199,1.6034024,1.3405175,-0.35804877,3.6137462,2.3434458,2.7632778,-0.44964108,-1.4233317,1.3693224,-1.7675806
-0.2605095,0.0979912,0.03729614,-0.68212855,-2.1768868,-3.6813684,1.920833,3.6941733,-2.620121,-0.24978538,-4.073605,-6.1641645,3.2878537,-3.0391169,4.2331424,-4.7852345,1.3263905,-1.8506932,-2.4670448,-4.827144
-3.062728,-4.3235726,-10.399423,-7.834603,-10.696722,-14.198609,-5.0543075,-3.4711483,-4.000832,-1.1328615,-1.3236258,-3.7619696,1.6849526,-1.4466257,-2.1434088,-4.177753,-10.138798,-4.4612827,-8.507572,-9.183623
-2.5892491,1.1055921,-0.5562256,0.8108045,0.17173263,1.0639176,-1.2237979,0.4334913,-3.794637,-3.434922,-1.804389,-7.798283,-3.043245,-4.949171,-5.3751106,-3.6220646,-3.045715,1.0832022,-4.538212,-7.742357
-0.79545707,0.45870727,1.5532287,0.39569932,0.92674947,-2.4202783,-1.65507,-0.18929397,-0.17259505,1.6136305,0.62591267,-0.7206721,-1.2713708,-3.11056,0.6564538,-1.3563474,-3.210008,-0.5194484,-0.90459895,-3.841615
-2.5311868,0.8937274,1.686319,-1.5017768,-0.8960991,1.0453149,-0.022251207,-0.9187589,-4.2248435,-3.3980768,-4.3998785,-9.041161,-4.0690956,-11.454972,-0.70349175,-10.028298,-9.951782,-1.6557984,-10.350663,-7.782635
-1.9791002,-0.58653355,-0.79736346,0.92654043,0.2533552,-0.8055391,0.3945354,1.0555141,-4.0290937,-2.7187252,-4.927846,-5.467154,4.737184,-4.945882,-5.771772,1.3394761,-8.532945,-1.905226,-10.292831,-3.9622939
-0.59533286,0.86878854,1.2623732,-1.027607,-4.825217,-8.339487,-4.08841,-1.5501387,-4.6228256,1.9861026,-0.78193426,4.706607,-0.51805544,-2.1376562,-1.5807297,4.1422377,1.0065767,0.48007154,-0.721431,0.12912008
-0.9108261,-0.37270162,2.2429895,1.1152163,-3.2597818,4.3464212,-3.5245245,-2.4086742,-0.9647671,4.1011624,1.2631689,-1.8064681,-3.33393,-2.3317728,-2.8412876,-1.8699332,-3.864707,-2.3160515,-8.364469,0.3436653
-0.13289952,1.554536,0.24319077,1.0809743,-5.7716064,-3.1434004,-5.628215,-2.096751,-8.2126665,2.7360263,-1.7242547,-3.96014,1.0928252,3.9184256,-1.7964,4.3600893,-1.3244019,-0.5143577,-0.29502657,5.5401654
-0.17160599,0.28898352,1.6389205,0.8062715,0.116766274,-0.65114444,0.908307,-1.1136746,1.5900445,3.4407208,-1.3895035,2.509129,-0.22967328,-1.1343278,-1.5171397,1.5455893,-1.9953333,0.1405421,0.2942075,-1.5486307
-0.2424811,0.8844436,1.0503987,2.5523653,3.2072008,0.605245,0.82598025,0.66256166,-1.0740479,1.9279788,2.1284537,-2.564748,-0.46784472,-0.27047157,-0.24699292,-0.38490456,-8.24343,-3.0485973,-4.1901617,-3.6006753
2.8279939,0.405619,4.3473525,1.7461163,-1.6642071,3.5139737,-2.2261608,-4.084298,-5.0603147,-4.3053665,-4.937034,-3.131901,-4.3649735,-1.9334555,0.10605218,2.199433,-1.6818454,-3.5069106,-7.922366,0.19751725
0.3842742,1.3710905,-0.73378956,-1.0378681,-0.10786485,-0.40328392,4.849851,-2.2253494,-2.8697307,-2.3291833,-2.0089362,-6.6757455,-5.9982276,-7.4247303,2.2752037,5.983073,-8.026778,-2.0627053,4.742173,0.774056
-2.212264,-0.34883144,0.035293423,2.9762263,0.50551707,-3.221078,4.758103,0.23571773,-0.36799923,-2.9022777,-2.4489875,-9.132325,1.607859,-9.173718,-1.712828,-3.8848517,-16.21353,1.5932882,0.61035657,-10.347685
-1.0300593,-0.21118475,1.5617745,0.99297076,-0.0626231,-2.9370794,-2.9327574,-0.8268308,-4.506932,-0.201392,-0.8493309,-7.0566826,1.6748538,-4.1048727,4.6977105,8.528215,0.35514808,-3.5590172,-2.609512,-2.3356729
-1.2912647,-0.3351073,0.8717836,-0.59998465,1.1942964,0.684026,-2.9086676,-1.9255904,0.29999673,1.4680337,-1.9258038,1.5780015,-0.16144083,-3.4532573,-0.4409723,1.2610149,-3.9400818,5.6998143,0.25729907,-0.7836087
-0.48150668,0.9791273,1.0027871,4.1657395,-0.36363193,-3.4677944,-1.7629085,0.47069353,-3.1023293,4.9444203,1.0479714,0.28554943,-0.39357734,-2.9007351,-2.1188514,3.3839853,-4.7923517,-0.97973555,-3.0471046,4.6323156
0.99635106,-1.129884,-2.5319967,-1.332183,0.622616,-2.2740135,0.09958225,-1.7826767,-4.7503877,-0.5270694,-5.4208765,-2.6527338,-3.759717,-2.4814284,-6.3420105,-2.2995117,-6.5608907,5.1054335,-0.2002263,-4.4410853
-0.14531042,-0.65941584,-0.38018578,-2.8944824,6.530124,-1.2969954,-2.176352,2.0002146,-0.7057633,-0.5943199,-4.36,6.915147,-0.21617122,4.3725085,0.86542594,-4.5451436,-3.0879042,-0.3740959,-4.0218134,4.515016
-1.9471737,-0.5592864,1.1162483,0.5984654,-2.3047907,-2.71732,-1.7771637,-2.4531987,3.7007432,-1.7180904,-5.171592,7.071178,2.391717,6.066268,8.959998,2.8805587,-3.6638095,-3.2933483,4.24459,-3.1241813
0.35023525,0.10848961,0.45047614,-0.6535493,-1.8251609,1.3937873,2.005257,-0.037016552,-0.88514,1.7694491,-0.70904964,0.5507856,-2.0273464,0.9051224,0.6463076,3.1030517,-3.1067708,-0.028332558,0.84529847,1.0900569
-0.2733441,1.3561354,0.010670229,1.1324391,-2.507229,-3.489941,-3.1520774,-1.300879,-0.7722209,5.9609427,0.61328596,1.4567031,-4.7976637,2.7432663,1.8953768,-0.13618475,-1.7722632,-1.4400562,-4.3554187,-3.322868