2.7798793,-2.4124715,0.6695218,-6.303493,-4.5201497,2.808788,-3.4917336,-3.048766,-3.9550836,-10.767361,-9.500574,-4.7150583,-4.0605326,1.5937397,-2.6587565,2.5928576,-5.4437795,-6.9437485,-5.519899,8.695329
1.1567624,-1.105761,-9.848942,-5.8622885,-13.503511,-2.0213315,0.84109586,7.6994996,8.4629,-6.3530474,4.1376886,-13.156284,-5.12927,-3.6201298,2.32254,-2.82466,-15.613852,-11.308138,-13.748097,-11.212074
-3.5109477,-1.0438211,-1.7978404,-0.37791985,0.8422772,1.5597537,0.6550468,-2.0950208,-5.012202,-1.0579795,-2.821568,-10.974566,-6.953296,-16.925014,-8.334492,-9.023701,-7.50963,-4.6174564,-7.4441338,-11.597792
0.67239124,6.4134707,4.3043957,-1.392001,-4.486785,-3.563113,1.445582,-2.1961894,-0.70685744,-7.5470424,-14.740897,10.938915,0.6307252,-0.3500615,-11.951477,-15.378367,-3.7097142,-3.8296735,-8.835395,-7.8926373
-3.9107656,-3.4275444,-5.320804,8.052122,0.8706063,0.21452637,6.069706,-2.4435365,9.014747,-2.1812992,-2.7511141,0.86476266,-0.09497738,1.6196212,-14.078336,-8.100007,11.990855,1.2754616,-4.9425297,3.0113204
0.5343685,-0.6398031,2.7498345,1.7045246,0.9127089,-1.8708866,-3.1864603,-1.3321619,-0.8796549,-2.8431737,-3.540315,-5.254899,-2.1968865,-5.5523977,-2.2467775,-0.44109982,-5.923205,-0.39694947,-3.0317512,-6.1698723
-6.368037,0.76988536,-0.36298993,-0.30254328,-1.0848709,11.7055025,-3.4476311,-3.0237432,-3.2695675,-9.42878,-4.622501,-8.13458,2.0833669,-15.498084,-7.6691613,-5.595063,-10.545537,-6.395697,-12.456689,-24.298393
-2.2785265,0.32595247,-0.7298715,-0.8493751,2.4606025,1.032925,0.38095552,0.07154007,6.5896125,-1.5761929,-5.7890086,-8.204354,-5.7359614,-5.3357353,1.7292699,3.0982974,-0.99608797,7.489685,-3.491156,-1.5057187
0.41551346,0.73013824,2.6471858,-1.1158447,-1.3173646,-4.860954,-0.029435683,-0.9283483,-4.8984094,3.60752,-1.4138957,0.44068387,1.2785212,-5.574032,8.830263,0.81126404,0.04375681,-1.2511925,-2.4509807,-2.6884847
-3.026327,0.070098825,-10.349407,-16.624355,-13.862125,-13.941985,-9.699641,-8.219115,-8.09429,-8.2124195,-10.560335,-4.9169064,-10.977095,1.1380144,-10.955758,-2.1897428,1.4828528,2.984263,-3.001617,-2.1764867
0.25539714,2.048556,1.2260132,0.4117637,-1.162501,-0.53930265,0.20396341,-0.27990264,-3.876621,0.14823064,-1.5717708,-4.142767,-2.3246098,-2.0998216,-2.9029744,5.489057,8.667338,-4.5272846,3.3772283,-0.27490234
1.950259,-0.6718677,-7.114683,-15.657554,-10.434029,-11.3830385,-2.9956455,0.7644186,-7.7905965,0.89900565,4.4358706,4.218795,-6.320375,-5.472408,-8.679253,-2.9722025,9.895601,1.2232004,7.9020643,0.6804219
-2.066864,1.967113,-2.102377,-0.8356896,3.0499313,1.5886508,0.17542556,0.333549,-4.4152646,-7.293426,1.235877,-9.208001,-0.3110904,-9.348781,-2.4361959,-7.113651,-4.601074,-0.7336961,-7.2491765,-7.8168807
-0.79580283,-1.2039884,-1.852535,-1.8695633,-6.4655037,-2.5604804,2.7054846,-3.5007997,-5.238756,4.6383367,9.699624,-7.5459337,5.2591925,-5.230301,-5.429902,5.8341312,-6.286759,0.30116683,-10.312452,-0.7580446
-0.33531162,4.406371,-3.9505568,-0.8729903,-0.55752593,0.9080493,-2.7195916,-5.848649,-5.1798487,0.43005347,-10.126217,-3.4177935,-3.2010856,-0.53777415,-0.8232985,-2.7192814,-6.4639544,-2.1440198,-12.450801,-3.8156838
-0.9739181,-0.32844156,-1.2170475,1.9721134,-4.980804,-0.38555178,7.4805927,-4.4136424,-6.603063,3.9529645,2.1945145,-8.234679,0.771045,-6.104501,-2.7618725,4.957181,-14.870173,-1.5789084,-0.036733147,1.4927557
-2.5589607,-2.912081,-3.3796067,-0.10426443,9.640224,-4.644175,-2.5414877,-4.3828077,8.183449,3.7362652,-2.1715884,-3.8740618,0.67994285,8.442906,-3.2585337,4.8965282,-11.144986,-3.9642005,-6.1050806,-4.420774
-1.579253,-0.2736373,0.14994043,1.076104,3.1521246,0.9594102,-1.2308513,-1.1866896,-2.047831,0.8873711,-3.188829,-9.487139,-5.1816683,-7.177923,-3.0984046,-7.721538,-3.9208684,-1.15673,-3.8827531,1.5702087
-1.0139016,-0.5972493,0.4952259,-3.338669,4.7931976,-2.391533,5.932433,-4.887983,-16.53039,-3.9361186,-0.6203093,-6.9011297,-0.6078529,12.87497,2.031124,-8.352648,-9.824521,-4.806489,5.044138,-6.0377846
-0.0070505217,-0.60686374,1.7205263,0.62724876,-2.1967292,-4.845713,-0.16897947,0.5311223,1.4132088,9.255072,-3.0186841,-2.6398146,-4.9654927,0.64500195,1.906071,3.7975166,-6.38788,-0.8031369,-4.2562137,-7.667362
0.13416296,-1.9934784,0.1494869,5.424954,0.13856581,-1.3534901,-3.3309093,-2.6536987,-17.92752,-5.686031,-2.854866,-2.6219294,-1.851854,-10.938252,-12.7383175,-9.401656,-22.630789,-4.222066,-1.6736959,-5.3835588
0.9664848,-0.5180686,-1.7337552,-2.7562835,1.4547352,0.16984935,-7.6144533,-2.5931134,-0.7435074,-8.571475,0.74256694,-10.253727,2.809778,-5.377558,-6.5676694,-2.895327,-3.6691234,-3.9288838,8.781471,-6.013384
-1.326255,0.76179385,0.29203165,2.2365394,0.8203823,0.16929479,-2.3436003,0.10870331,-5.7935367,2.9207258,7.0074935,-0.96084905,-1.329434,-1.3035083,-6.4740624,3.0988774,-3.5788922,-2.4631631,3.60285,-0.79590666
-2.8902042,0.97629225,3.5231967,-1.7872195,4.2988634,-6.0359674,2.7269773,0.5299666,-2.2629945,-4.9226074,8.858353,-4.1921554,-5.911979,-11.311831,-1.5654361,-10.6956415,-2.4841182,-9.139219,-5.1514688,5.978775
-1.8871917,0.84137213,0.57538366,3.16109,0.3400986,-0.17679046,-3.6134753,-1.9934419,7.3102965,-1.2057128,-2.4175038,-2.8602023,-0.41872472,-4.482733,-0.87183857,-1.0570414,-9.953859,-0.42319462,-7.4147286,-4.5698333
0.28631938,-2.9694784,5.3558326,3.0657022,2.6044147,-5.1671524,-4.1204233,0.39055407,-0.09103322,-2.1175315,-7.153343,2.1454473,5.0602884,-15.01663,-6.1427116,-6.349155,2.5144498,-3.5239906,-5.424722,-10.1006565
-0.4593749,-0.20597483,0.726391,-0.36520657,-4.6635985,-3.8144557,0.04412173,-3.2834156,-6.072387,-3.5056946,-2.834752,0.29458714,-4.2025933,0.189022,7.128545,-3.90463,-10.801296,6.950441,-2.6046362,-6.4811316
0.35860544,-0.48015782,1.2164141,0.6477025,0.07788472,0.22152734,0.5090099,0.13073108,-3.7008893,1.6558992,1.1338426,3.6016614,-5.0386786,8.401579,1.4588786,5.122814,-5.045161,-1.7653569,-1.3970308,-4.3240323
-2.0357985,-2.2105029,-0.5182854,-7.337092,-5.4180164,-6.2054915,4.362082,6.7648597,-5.197439,-1.1574422,-7.492213,-11.983377,4.50478,-2.9102101,7.996065,-12.825437,5.02281,-2.030563,-0.81100833,-8.649291
-1.6996405,-7.6238256,-12.648371,-9.979625,-11.515624,-15.098052,-5.0604625,-3.7467992,-5.3605995,0.83877236,0.17921077,-3.7168574,3.7724845,-2.8362682,-2.7437031,-9.061841,-13.830366,-0.85679513,-10.690103,-15.522273
-3.091116,3.035459,-1.2137033,1.2610843,0.024759345,-0.15912631,-7.3806443,1.6998109,-2.2207193,-11.2395315,-6.896645,-7.3144627,-3.3223238,-5.705878,-7.4413886,-2.1108742,-6.643022,-0.2119768,-6.0503197,-8.885495
-0.8575932,-0.5737439,0.724137,3.6132452,0.9841454,-3.6305275,-0.5886914,1.0339165,1.5219969,2.1160254,-0.31111,-8.475633,-4.489635,-11.085515,-8.697448,-0.43541175,-7.7353935,0.62450206,-2.797702,-10.717326
-2.9052541,-0.01746363,1.0066222,0.47366276,-1.0771329,0.7228525,-2.6840272,-3.754838,-5.421994,-7.2459264,-3.2700539,-4.477678,-5.8136973,-21.740133,3.6299326,-13.707143,-11.403135,-7.1239614,-10.756952,-7.72635
-2.201805,-0.46947327,-1.4576218,1.7322786,-0.4937408,0.49520308,-1.1167344,1.164244,-4.2163563,-8.083435,-8.524808,-7.72748,6.0285654,-4.1643643,-7.9026637,-1.7235787,-11.968613,-6.7673044,-11.059053,-3.9788172
-0.67883235,1.0667982,1.0290023,-4.404812,-4.750827,-8.754801,2.923683,-3.3948772,-2.0923636,4.465533,-1.5249953,3.2105415,-1.2585148,-3.5986936,-7.4301395,10.460818,-0.8579758,-0.060540363,-5.5580287,-4.2541795
-2.233942,-1.3004045,4.023422,0.60515726,-6.7635117,6.630965,-2.250281,0.5120241,-1.9931034,8.94688,-0.029152343,-1.3955559,-1.0913697,-3.333977,-4.8906274,-11.22383,-7.6608253,-7.325576,-10.962639,-0.29736587
-1.5249009,2.181162,1.145083,3.0869732,-5.8293467,-4.196877,-6.156538,-3.7264118,-12.4743595,7.8380294,-6.138375,-12.99352,-1.8220491,6.7890067,-8.876479,5.636041,-4.11119,-1.8354017,-5.175466,9.47526
-0.18120629,-0.26516917,2.5601091,-0.52599746,1.6810498,-2.276965,0.57136995,0.07928759,3.9384935,6.0168414,-6.5284667,2.8652499,-5.086906,-4.4460917,-5.0769835,-0.5522343,-10.563486,-0.8794382,1.4113535,-9.932614
-0.3007088,0.66912127,0.72635376,3.1277506,3.5596092,-2.0200844,1.1233534,0.422128,-5.033386,3.240813,1.875868,-0.20939277,-2.4670367,-3.579953,-2.3745592,-5.61703,-8.023518,-1.5305516,-8.741199,-9.5571165
5.4540796,-0.6945031,5.2973785,0.6927156,-3.5381224,3.2597203,-4.285759,-7.0825233,-10.082072,-12.132572,-5.851132,-3.147166,-10.523781,-6.258389,-3.671346,5.5333934,-3.6723092,-6.6418333,-9.070472,0.06096671
-0.9470853,1.0375212,-2.408955,-3.1526918,1.6483129,-4.5423555,6.7507925,-3.630432,-6.293779,-3.599755,-5.0495043,-10.457427,-12.552619,-17.27133,4.316315,7.7014265,-7.2393713,-5.39477,5.764703,-0.5948826
-2.9633381,-1.6096232,-1.1935878,4.468128,-2.4250615,-8.144657,7.719828,3.2788627,-5.215412,-2.742386,-3.1423068,-11.415547,1.6085336,-11.244288,-6.336307,-4.490217,-17.105898,2.2167342,0.41591135,-12.877658
-2.03053,1.7143111,-0.17239502,1.0461968,-1.8856899,-2.3638754,-2.834967,-1.6267649,-3.6904576,-2.8618004,-3.1059399,-23.95362,1.6204975,-4.3016276,10.871053,6.682341,-3.7003152,-2.1346772,1.702478,-5.2541413
-2.3556948,-0.3358277,0.97420263,-0.8354328,0.67754257,0.96386623,-1.8400801,-0.44748005,-4.382383,2.7059567,-4.9345417,3.7344286,-0.37648484,-4.2716007,-0.8737945,4.2456384,-7.6640897,12.985334,2.5411563,-1.9219636
0.11799894,1.6244562,-2.1386662,7.0544486,-4.367145,-5.6717305,-4.3496923,-0.8279081,-7.3476114,4.60253,1.2464503,2.7985582,1.0098534,-4.622742,-9.176444,2.6606193,-13.455641,-0.051415887,-4.203628,5.283067
3.1001875,-1.2222801,-4.8169622,-6.657431,-0.6068481,-2.4199362,0.03778893,-5.235375,-7.4451365,3.208705,-9.823979,-6.945367,-2.4703665,-1.497679,-9.6281185,-5.986845,-8.457144,5.508497,-0.842749,-4.0322685
0.58785844,-2.4885464,-5.1446066,-2.8387558,7.178255,0.6741331,-2.83454,7.9828186,-5.2020755,-5.185225,-2.968122,8.396018,-3.4617465,0.3170242,2.7035515,-2.8357215,-4.9484415,0.81668293,-12.242917,4.7092566
-4.0785284,-2.1667688,2.1532443,0.5302163,-6.6629295,-2.0308175,-5.486557,-3.5197167,4.92584,-3.685821,-8.44789,11.219628,0.8088831,8.661994,12.654372,1.0534894,-8.968118,-3.8433893,7.4083753,-3.887324
0.87252235,-0.016963543,-0.8485487,-1.711788,-3.9991248,6.3111362,8.014679,-0.19041182,-1.7922058,-1.394933,-0.3888077,-4.321781,-1.760757,0.18158807,-7.1489334,5.5359554,-2.5004072,2.6772516,2.4315603,-5.2194586
0.17098612,1.5151047,-1.5083151,3.5540166,-5.7217927,-6.9273076,-3.026725,-2.2043462,-0.958661,10.110996,0.7258465,0.41549623,-6.9534054,6.0592074,3.8111439,-5.0252905,-6.0785136,-2.7858346,-11.931727,-4.0895023