1.7221336,-0.63020426,0.1391282,-1.5623608,-2.546572,1.7402624,-2.673828,0.032742467,-0.7994081,-5.903559,-5.43442,-1.2426584,-2.484599,-1.8783154,-1.6900883,0.43316236,-3.8463964,-2.1982281,-1.9884319,5.104512
0.5992465,0.23377682,-4.4321513,-7.010382,-5.355344,-0.30098277,-0.6924963,5.650726,5.723421,-1.5915174,1.9591472,-8.630426,-3.5807521,-3.6970675,0.91202027,-2.619112,-8.262385,-8.4050255,-7.870572,-8.455789
-3.4038777,-2.3835595,-0.8002645,-0.58109486,0.88982713,1.4677242,0.65392756,-1.072778,-4.268786,-2.1281712,-2.7834954,-6.841765,-1.3442523,-8.595834,-6.1715126,-6.587499,-7.857164,-3.2002513,-8.323934,-7.6197963
-2.102751,4.9500337,3.6412868,-0.8335668,-2.044521,-2.7732244,2.8400745,0.5979724,0.2456828,-7.8712096,-10.183433,7.0743737,-0.19257559,-0.074486144,-8.37429,-8.817529,-0.90602994,-4.6145225,-5.425267,-5.1597333
-2.1349952,-2.0933821,-5.2804008,7.4130125,-0.19128144,-0.27972788,3.9941108,-1.1927677,5.3905163,-0.8083862,-2.5343003,1.7768054,0.29492274,2.0413427,-4.397283,-5.717606,9.374777,-0.8916872,-1.6616719,1.6643803
0.055164568,-0.7780155,1.9860209,1.5561378,1.3187329,0.0066132965,2.8965354,-0.80252093,0.21826896,0.99676406,-0.9782396,-4.09193,-3.291622,-1.608617,1.1071225,1.366855,-3.3250692,0.5759065,-2.5301425,-1.9799855
-2.2902057,0.8000554,0.7479652,-0.31573725,-1.4731293,8.636446,-7.436425,-2.7195296,-2.672929,-3.7130885,-0.44965097,-6.8071494,0.49471885,-7.394057,-4.260758,-2.9351811,-13.246833,-7.3595266,-12.954548,-15.380094
-1.286115,0.21843347,-0.5316577,-0.22560304,0.20932765,0.8516916,0.17916146,-0.86039966,1.7613426,0.24952787,-0.8556004,-1.9650884,-1.6562246,-3.8987134,0.10129322,0.17723075,-3.3495262,5.4096885,-2.6348648,-2.6739473
-0.19267894,1.4104636,1.5461266,1.9958748,-1.2918085,-2.2955983,-1.2734549,-0.64322096,-1.9279596,2.8437214,-0.7413587,2.8036852,0.95008904,0.43238562,6.0747695,1.287456,1.8492098,-0.09777391,0.25562328,-0.4937198
-2.879225,-3.2250865,-10.106917,-12.813463,-10.863003,-14.008077,-10.872161,-5.628944,-7.210004,-6.69902,-10.166705,-4.841828,-11.163723,-1.7929062,-9.036226,-1.2875012,2.2888048,2.9382708,-2.90763,-1.9312743
0.23416623,0.7522217,1.5950856,1.3130167,-0.7897925,0.14165293,-0.064121984,-0.26160824,-1.4434503,0.19807218,0.9094628,-1.6863832,-2.540717,0.82981604,-1.2606134,3.4546225,6.5552106,1.1635156,1.4299715,-0.08421797
2.2420049,-1.1148542,-4.741634,-9.928318,-6.489735,-8.705457,-5.802809,1.6234819,-5.257623,0.3141459,2.7303426,1.6204162,-3.7958586,-5.7038784,-4.858165,-2.9372416,4.975632,-0.57000923,6.880139,0.46122113
-1.8541769,0.8213305,-0.84799665,-0.43136182,1.3131177,1.8943928,-0.06543051,0.5036383,-0.47282833,-4.87634,1.7416164,-3.7730412,-2.73378,-7.254348,-2.5561223,-5.0698223,-7.758101,-0.78277516,-6.0444236,-6.733593
-0.40805757,0.08200588,-1.329241,-3.7880707,-3.3807752,-4.3881016,0.20535226,-2.2361212,-3.0761497,3.2956305,5.7784266,-2.4769506,5.4127316,-3.9600198,-2.6864057,4.5359592,-4.221068,-1.9253567,-5.4874525,-0.4174458
-0.4953709,1.7921863,-1.715213,-0.27027628,0.6476439,1.4787601,-0.929564,-2.8227189,-4.6400385,-1.5166998,-3.8848746,-5.2812333,-3.2533693,0.07225897,-0.825441,-2.2367644,-6.6868095,-1.4302136,-6.536965,-3.7458994
-0.69871354,-0.16303283,-0.9094574,1.3691112,-0.6111013,-1.5991521,5.347822,-1.5196055,-2.8718312,1.7983458,-0.18084483,-2.6615944,0.14111817,-0.23805948,-1.6036117,3.4340045,-6.6606593,1.5773582,0.75947213,-1.0753225
-2.4224977,-0.9606839,-1.5681376,1.4702902,6.285046,-1.9808873,-2.9593651,-1.1080092,4.6728497,3.510478,-0.43157274,-3.4550047,3.589405,2.684697,-1.221971,2.3961573,-8.177192,0.7317012,-3.6596472,-2.8766956
-1.5566069,-0.5937588,0.52410346,0.5531844,3.047389,1.1603471,-1.3108522,-0.917931,-1.1498954,-0.58528936,-1.5004792,-2.208352,-0.5629656,-1.1942458,-0.17543985,-1.5551776,-4.1466894,-0.21527836,-2.7651281,-0.42771152
-0.9472887,0.3443212,0.8883783,-1.2336268,5.620178,-0.7792766,5.132889,-1.0495002,-10.225219,-3.103422,-1.4022933,-9.641591,1.2208469,7.0280423,-1.0507962,-8.459391,-6.558309,-1.8708601,3.5739331,-4.95975
-0.3703953,0.08028616,1.395423,1.0836052,-0.60136694,-3.00238,-1.6368989,0.0828019,0.11747907,4.296811,0.10954903,-0.6945145,-3.3435535,1.4246875,2.2714164,3.2364933,-0.8569448,-0.40822858,0.079247266,-0.32356772
-0.28467244,-0.8155239,-0.4789209,3.1932623,1.4870074,-0.12517159,-1.4593924,-0.95529294,-8.713609,-4.544114,-3.7744596,-3.7965178,-1.3685184,-8.218147,-9.249248,-5.8222184,-18.191296,-3.7458093,-2.9052536,-9.55621
0.44928104,-0.22043867,-0.3734084,-0.5561781,-1.6381288,1.7880058,-0.3582618,-1.5448819,-0.16236721,-1.4259673,-0.7463128,-2.1575506,0.08037533,-1.9398439,-3.5480547,-2.0295365,-5.5764093,-2.2492135,7.909392,-4.2498026
-1.2150034,0.62721324,0.47974333,1.7322773,1.3396084,0.7573588,-1.6510563,-0.022951424,-1.47449,1.5529478,6.542283,-2.010791,-1.4451638,0.25163928,-1.7637427,1.9554454,-1.5244926,-2.2924507,6.108146,0.28404507
-0.55388105,0.2369018,2.7004294,-3.0303082,3.6250088,-3.3317745,0.15461342,0.55527145,0.733622,-0.9865262,7.5523276,-0.6024425,-0.925509,-7.4179087,-1.3460827,-8.8152075,-1.1680505,-4.244227,-3.538183,3.5577412
-1.8416424,0.45922568,1.1507748,1.9975301,0.49957752,1.0388278,-0.97531366,-1.8068368,2.8565555,0.522648,-0.73597604,0.15279992,1.7599089,-1.2044433,0.33401346,-1.0265269,-6.963121,-2.325522,-4.1318517,-2.075698
-0.29091117,-2.3324893,4.3586736,-0.550174,2.935381,-1.4671865,-2.2362342,0.23488003,-2.0759888,0.11996884,-2.3335896,-0.080984555,4.6386924,-10.124282,-2.0752585,-1.6406696,4.064931,-2.0678627,-8.230539,-7.7908773
-0.958032,-0.7243991,0.40970805,-1.141347,-1.8531841,-0.895964,2.368626,-2.0730312,-2.1427157,-0.40608078,-0.8269774,-3.5052018,-4.132591,1.1966686,4.1155834,-1.4806014,-3.9241552,5.133462,-2.344425,-2.9947093
0.35071036,-0.43580487,0.046533287,1.4768834,1.2174796,-0.12075012,0.23585291,0.01921766,-1.1208329,1.4494402,1.6084454,1.335083,-0.41799888,3.6164863,2.3497016,2.7664933,-0.43700686,-1.4257385,1.3689189,-1.7871056
-0.31339538,-0.07246407,0.17770448,-1.1856824,-2.7748184,-3.7137632,2.4909184,5.2637854,-2.7882063,-0.36996856,-4.119635,-6.2533813,2.0284283,-3.1740391,4.5435257,-4.973676,1.9810736,-1.9000511,-2.5938187,-4.9364886
-3.1689878,-4.607406,-10.636358,-8.208921,-10.809688,-14.142239,-5.144409,-1.9451609,-3.989881,-1.1428096,-1.3127614,-3.7867813,1.6818373,-1.4517964,-2.1637616,-4.2129884,-10.126381,-4.4732814,-8.524404,-9.24702
-2.6117735,1.1070023,-0.60344374,0.9872141,0.15873885,1.0015777,-1.528504,0.16786978,-3.7925453,-4.1046753,-1.9697217,-7.826608,-5.4670362,-5.314186,-5.3856273,-4.4853497,-3.15421,0.26076844,-4.511126,-8.25117
-0.7961746,0.46040908,1.5508617,0.3943946,0.92598313,-2.4076831,-1.4233073,-0.19496487,-0.22828369,1.6111132,0.61090475,-0.72486764,-1.4857911,-3.1180086,0.65243477,-1.3799433,-3.2015586,-0.5292525,-0.8838405,-3.8492768
-2.5638406,0.68211144,1.7507706,-1.4241749,-0.9036487,1.2041634,-0.13010544,-1.1598272,-4.231189,-3.4839613,-4.4182353,-9.137393,-4.302091,-11.531523,-0.9442923,-10.171723,-9.944763,-1.7886897,-10.287321,-7.845121
-2.0008981,-0.60759526,-0.80830246,1.087117,0.18443233,-0.80681944,-0.77008677,0.74043936,-4.1265574,-2.8575835,-5.0125833,-5.54439,5.1712136,-4.9583125,-6.211537,1.2670678,-8.490199,-1.9872652,-10.325139,-3.965372
-0.59545326,0.86855626,1.2621807,-1.0284405,-4.8270774,-8.312856,-4.0834126,-1.5504583,-4.6223083,1.9866315,-0.78215885,4.7067723,-0.52576584,-2.137724,-1.5825957,4.146439,1.0065333,0.4800443,-0.7223923,0.1254704
-0.92524403,-0.44722447,2.218637,1.0820671,-3.3209782,4.614548,-0.5831346,-2.433431,-1.0278484,4.2543483,1.2052925,-1.9251685,-3.5200632,-2.3211007,-2.9480298,-1.9631869,-3.9821122,-2.3531353,-8.389516,0.33461857
-0.1476007,1.6064355,0.09857232,2.7884743,-6.1466045,-3.682135,-6.120347,-2.8840108,-8.275628,2.7138498,-1.8097793,-4.113923,0.5486544,4.0948467,-1.7644933,4.3388467,-1.280729,-0.96803874,-0.29460716,5.639995
-0.17205593,0.2883501,1.6413622,0.80981916,0.11030359,-0.60412645,0.9194823,-1.1153188,1.5182618,3.4422395,-1.398132,2.4866452,-0.2948836,-1.1407114,-1.5265052,1.5420909,-1.9981151,0.12656814,0.30904582,-1.5582465
-0.2532707,0.86841196,1.034571,2.2938163,3.7422144,0.36769155,0.5622647,0.571953,-1.1201591,1.68727,1.0628499,-2.6054244,-1.6678923,-0.38152522,-0.4141544,-0.652361,-8.253236,-3.0816407,-4.202226,-3.6417544
2.9504733,0.12750201,3.8399448,1.8197118,-1.9480556,4.7461667,-2.9203136,-3.5690966,-5.137258,-4.3851266,-4.8566804,-3.3304713,-5.5933723,-1.9938377,0.02500914,2.277874,-1.614476,-3.7531013,-8.152716,0.06340912
0.24645512,2.0681272,-1.6533892,-2.3307471,-0.3142838,-0.6420661,4.2727733,-3.125237,-3.583202,-2.5005507,-1.97608,-6.80112,-5.5330076,-7.444393,2.0448542,6.038818,-7.9989457,-2.1153817,5.934932,0.763164
-2.2600799,-0.55131286,-0.033235133,3.6244206,0.5142291,-3.1794345,4.45123,2.3332243,-0.51178443,-2.929675,-2.3577778,-9.171488,0.6133453,-9.253114,-1.9173158,-3.9116776,-16.224564,1.5458968,1.0491712,-10.376131
-1.032509,-0.21428199,1.5635577,0.98712945,-0.07492437,-2.8922539,-3.4618194,-0.91319597,-4.5152664,-0.23058663,-0.86107,-7.087122,2.6002178,-4.12579,4.8264065,8.7515955,0.42680275,-3.564042,-2.6682024,-2.595166
-1.3006035,-0.3568007,0.8892109,-0.6132426,1.1566931,1.0512084,-2.9804556,-1.949163,0.4165402,1.4746965,-1.9162029,1.5839752,-0.13495986,-3.4720595,-0.54759103,1.2704477,-3.8959918,5.915278,0.2182865,-0.85172236
-0.4925538,0.97636807,1.0028127,4.751225,-0.5243917,-3.4632676,-2.1581824,0.48900744,-3.1054718,5.013609,0.9897993,0.22630799,-0.53255564,-2.9230616,-2.2999847,3.4305656,-4.795201,-0.9807409,-3.0589535,4.714248
1.0547569,-1.2066287,-2.5885527,-1.4499317,1.0150541,-2.327792,-1.2184318,-2.0764568,-4.823458,-0.48728502,-5.454812,-2.6620002,-1.910226,-2.486855,-7.192673,-2.3629105,-6.5538344,5.153625,-0.22106044,-4.765692
-0.22093536,-0.6840867,-0.42157215,-3.0508332,6.7399573,-1.2278291,-2.4716747,2.3343694,-0.8288777,-0.7313151,-4.4080753,6.9422884,-1.1796889,4.429933,0.75026315,-4.6534033,-3.374464,-0.4204754,-4.0660143,4.9817667
-1.9878759,-0.6075534,1.1378841,0.6073099,-2.407013,-2.7178729,-1.8663007,-2.5990043,3.8650396,-1.7842423,-5.1990952,7.215841,2.5431886,6.115229,9.15992,2.9076965,-3.7527583,-3.3101,4.4299355,-3.153022
0.35017076,0.10970205,0.44066265,-0.6447392,-1.8444064,1.4227005,2.058529,-0.040342633,-0.88689756,1.7673197,-0.71050525,0.5495731,-2.1146832,0.90336573,0.6436651,3.1067047,-3.103698,-0.032682195,0.8524871,1.0950085
-0.26706105,1.3849914,-0.058791418,1.2940371,-2.6157851,-3.5428445,-2.9792345,-1.3463366,-0.875759,6.0693097,0.46762782,1.5389863,-5.1414657,2.8331552,2.1544628,-0.2754392,-1.7135373,-1.5701661,-4.35938,-3.4470124