2.9100878,-2.422705,0.6817965,-6.29699,-4.52112,2.77982,-3.4945447,-3.0492518,-3.9483032,-10.7795925,-9.502364,-4.717653,-4.061961,1.5243511,-2.6607032,2.6016552,-5.4428053,-6.944465,-5.5272403,8.554734
1.1537981,-0.9869844,-9.852211,-5.937346,-13.502455,-2.1221864,1.9514297,7.2900624,8.342214,-6.542695,4.284906,-13.183362,-5.937643,-3.6334682,2.2927294,-2.8225844,-15.632397,-11.309143,-13.748603,-11.218814
-3.5111604,-1.0116189,-1.7927482,-0.4021223,0.8427594,1.5593537,0.6544256,-2.099625,-5.012081,-1.0585608,-2.8213286,-10.980798,-6.957573,-16.930006,-8.334834,-9.0245285,-7.5085816,-4.6178184,-7.444719,-11.626951
0.7183006,6.2569275,4.82517,-2.0284402,-4.4868,-3.6389496,2.2611544,-3.0395977,-0.68669045,-7.549113,-14.741764,10.82812,0.5868031,-0.35172674,-11.950426,-15.378533,-3.7020817,-3.922998,-8.836545,-7.9024897
-3.9116323,-3.3663204,-5.4563193,8.396049,0.9310622,0.10590194,5.8960834,-2.4559996,9.039336,-2.444846,-2.5481365,0.8526043,-0.20581847,1.6121169,-14.084157,-8.108572,11.856774,1.2973121,-4.831492,2.943185
0.5415982,-0.9167833,2.998093,1.6845505,0.9124972,-1.8990891,-3.1353443,-1.3298743,-0.880595,-2.8223388,-3.5413055,-5.2943583,-2.2039745,-5.553181,-2.247333,-0.47181273,-5.927478,-0.40303978,-3.0297394,-6.358859
-6.3288503,0.60781795,-0.13916664,0.3300912,-1.0428187,11.659909,-3.4361877,-3.0311456,-3.2677252,-9.447847,-4.604419,-8.138807,1.212382,-15.5156975,-7.670898,-5.586374,-10.54567,-6.395926,-12.456726,-24.308825
-2.2787347,0.2611708,-0.6552415,-0.86702144,2.47066,1.0092129,0.36499485,0.0753565,6.601838,-1.5625027,-5.7897496,-8.181514,-5.739211,-5.363889,1.7286352,3.0992658,-1.0467833,7.489383,-3.4900541,-1.5120473
0.41550985,0.7318296,2.644082,-1.150382,-1.2690637,-4.8615804,-0.029286364,-0.92888254,-4.899142,3.6055686,-1.4043776,0.44183353,1.2779683,-5.5736437,8.831584,0.7970349,0.34280065,-1.2537886,-2.451003,-2.6885898
-3.0290089,-2.2114208,-10.348574,-14.277228,-13.862467,-13.9524,-9.711538,-8.218491,-8.093619,-8.272983,-10.560788,-4.916204,-10.977867,1.1372067,-10.957816,-2.1876087,1.4822431,2.9838629,-3.001598,-2.1772306
0.25428504,2.0433497,1.2091761,0.3497411,-1.1714172,-0.5569674,0.60133886,-0.2817142,-3.783354,0.12728006,-1.5692556,-4.1568546,-2.3348465,-2.1821659,-2.8952343,5.473178,9.172651,-4.525943,5.025234,-0.35372347
2.1498077,-1.1179442,-6.469916,-14.7679,-10.425671,-11.495546,-3.317977,0.78721654,-7.789287,0.8045726,4.5666337,4.20021,-6.3739595,-5.5818167,-8.686575,-3.004604,9.69005,1.2286683,8.052325,0.48886022
-2.0669692,1.8155899,-1.9254252,-0.8725845,3.3363376,1.5436836,-0.47047195,0.3163206,-4.4139233,-7.294768,1.2186036,-9.2261505,-0.32376885,-9.38686,-2.4368594,-7.113173,-4.599021,-0.7379061,-7.252963,-7.8503857
-0.79896265,-1.1850599,-1.825686,-1.8232312,-6.4650073,-2.5766027,2.6700249,-3.507888,-5.238489,4.4396706,9.84689,-7.5480413,5.2670507,-5.229555,-5.4337845,5.835921,-6.2076893,0.28934819,-10.314558,-0.7668952
-0.30630833,4.4562435,-3.8415427,-1.1153028,-0.5542685,0.8354867,-2.7039032,-5.9054766,-5.175135,0.45323992,-10.128576,-3.4316714,-3.241748,-0.54011106,-0.8232512,-2.7096114,-6.473984,-2.1474915,-12.45173,-3.8252447
-0.974206,-0.32312915,-1.2110939,2.6130798,-4.953034,-0.4390306,7.584479,-4.4194727,-6.4669523,3.8176675,2.217163,-8.240636,-0.014074992,-6.130987,-2.760368,4.9359355,-17.941563,-1.5790764,-0.026098665,1.4791849
-2.5656629,-2.9084997,-3.358697,-0.13550282,9.710865,-4.6559334,-2.6532655,-4.3810363,8.203152,3.6417,-2.1646986,-3.8694537,0.7286505,8.436018,-3.2683315,4.926936,-11.312708,-3.954292,-6.1050377,-4.421296
-1.5792177,-0.27183956,0.14941363,1.0750357,3.1521873,0.9591842,-1.2318451,-1.1870846,-2.0434299,0.85962546,-3.1954622,-9.599162,-5.1817927,-7.1793613,-3.103422,-7.706791,-4.0925922,-1.1568681,-3.8694491,1.5531902
-0.50412786,-0.5807749,0.49258524,-3.4499052,5.0145164,-2.4100285,5.703297,-4.8858824,-16.528282,-3.9319463,-0.62636214,-6.921178,-0.56398064,12.855223,2.0267167,-8.374816,-9.826361,-4.8085175,5.050871,-7.102672
-0.0077572735,-0.6065056,1.7350913,0.6088989,-2.1966982,-4.846721,-0.17253304,0.5336854,1.4134759,9.374602,-3.0181522,-2.6399145,-4.9655514,0.64480084,1.8974314,3.5928087,-6.3894043,-0.8040113,-4.2560906,-7.667458
0.21453096,-1.9968765,0.10773127,5.5857234,0.14000739,-1.3900806,-3.787008,-2.6367307,-17.913311,-5.6968193,-2.8577497,-2.632572,-1.882948,-10.939915,-12.738985,-9.40141,-22.634804,-4.2234893,-1.6781318,-5.51047
1.0015762,-0.53883296,-1.691583,-2.8210847,1.4540145,0.035550863,-7.598604,-2.5936334,-0.7549987,-8.566355,0.59605086,-10.261208,2.783891,-5.381656,-6.6111636,-2.8884408,-4.0156555,-3.9280481,9.02836,-6.0203886
-1.3266207,0.75879586,0.2942456,2.2397008,0.8201963,0.16269678,-2.3479497,0.10831517,-5.7941556,2.9030282,7.02034,-0.970873,-1.3294295,-1.3041099,-6.474778,3.0897987,-3.5582378,-2.464056,3.6101198,-0.8115286
-2.896089,1.0222859,3.49698,-2.1198738,4.6125326,-6.092017,2.8655174,0.5016496,-2.2406538,-5.0042562,8.921686,-4.4250526,-5.951442,-11.317615,-1.566706,-10.695789,-2.4750926,-9.141274,-5.1515594,5.960412
-1.8874797,0.84297013,0.57581997,3.1588998,0.34068808,-0.19257085,-3.6225755,-1.9956598,7.317271,-1.2079985,-2.4183595,-2.881011,-0.41875002,-4.482999,-0.8718584,-1.0603199,-9.994217,-0.42360315,-7.41186,-4.580394
0.31193894,-3.197306,5.4319305,2.7632196,2.6426904,-5.2114477,-3.1695025,0.4394387,-0.07854833,-2.1162286,-7.156301,2.124735,5.061009,-15.0246,-6.126887,-6.374578,2.7191238,-3.5264354,-5.44862,-10.130386
-0.45776355,-0.6427367,1.3423419,-0.54728836,-4.66504,-3.8221624,0.23089063,-3.2831142,-6.070479,-3.5008876,-2.8232195,0.29058754,-4.2180595,0.18384053,7.158599,-3.8691123,-10.814107,6.9510283,-2.604967,-6.679686
0.36252698,-0.47989225,1.2142882,0.6748318,0.07711093,0.21006621,0.43451723,0.1308369,-3.7006927,1.9510313,1.1340884,3.6006403,-5.1071305,8.400773,1.4586378,4.894116,-5.0477004,-1.7676572,-1.3969958,-5.905078
-2.0242243,-2.2226374,-0.53779006,-6.75513,-5.421161,-6.212299,4.9215317,6.1918435,-5.1938763,-1.2712458,-7.4096365,-11.985418,4.3784766,-2.9118674,8.002921,-12.827112,4.836146,-2.0304794,-0.81097215,-8.655512
-1.6983424,-7.587437,-12.57226,-10.049181,-11.51308,-15.105534,-4.5085306,-3.7531817,-5.33297,0.82126766,0.28126687,-3.7311506,3.4786015,-2.8371513,-2.7487628,-9.222171,-13.7687235,-0.85708535,-10.693849,-15.547456
-3.0924282,2.9070644,-1.165576,1.3322229,0.025826847,-0.15084304,-6.512185,0.85139304,-2.2142959,-11.247489,-6.897221,-7.326951,-3.3479683,-5.707385,-7.445044,-2.087611,-6.6554437,-0.20360398,-6.050346,-8.909772
-0.8586374,-0.70029473,0.7200461,3.6361773,0.9906151,-3.6404543,-0.5971527,1.0193394,1.5197433,2.1054773,-0.31576696,-8.477396,-4.490581,-11.0870285,-8.698636,-0.44207433,-7.738456,0.6243342,-2.797523,-10.729545
-2.9501424,-0.17740841,1.2792948,0.4828935,-1.0760992,0.45889813,-2.6899743,-3.7570238,-5.422873,-7.2422614,-3.270568,-4.485459,-5.811448,-21.743082,3.6265264,-13.725199,-11.43667,-7.126057,-10.756353,-7.732813
-2.2119439,-0.45282823,-1.4461341,2.009313,-0.52326024,0.42581624,-0.6485469,1.1780417,-4.2120256,-8.097413,-8.554057,-7.743958,5.30969,-4.166699,-7.892456,-1.7056164,-11.937584,-6.766223,-11.061073,-4.0106854
-0.67817426,1.0665575,1.0294281,-4.4106336,-4.740961,-8.760493,2.9224842,-3.3948874,-2.0923524,4.4597335,-1.5248508,3.2105637,-1.2588391,-3.5989048,-7.4307384,10.465295,-0.8579413,-0.0608564,-5.555751,-4.2555346
-2.2436085,-1.5080919,4.538976,0.19249965,-6.63377,6.6248655,-2.3867712,0.49097458,-1.9858173,8.851587,0.15280677,-1.3983004,-1.0969175,-3.3358746,-4.8831673,-11.289025,-7.663919,-7.3290544,-10.932508,-0.3033158
-1.3932338,2.1545234,1.2076575,3.0854564,-5.8320904,-4.2093844,-6.014532,-3.7305095,-12.472754,7.7632823,-6.0008793,-13.029291,-1.900224,6.719688,-8.836852,5.600543,-4.0397215,-1.8283854,-5.055941,9.317694
-0.1814365,-0.26372215,2.5996673,-0.5665684,1.7036448,-2.2941418,0.56874436,0.0792326,3.9511838,5.8683314,-6.528846,2.857348,-5.0882664,-4.4610524,-5.077669,-0.2440802,-10.564178,-0.88039654,1.4197302,-9.93557
-0.30053908,0.66729367,0.7271968,3.1017435,3.6138408,-2.0534096,1.1062286,0.41609144,-5.031481,3.1617274,1.8301697,-0.21549386,-2.4982193,-3.581625,-2.3719704,-5.5658336,-8.108386,-1.5358623,-8.738836,-9.615725
5.507371,-1.067185,6.0978913,0.42518663,-3.5309727,2.9671216,-4.2901235,-7.0831738,-10.077402,-12.223533,-5.854711,-3.153593,-10.542133,-6.365746,-3.6799867,5.528646,-3.6707642,-6.6431355,-9.079589,-0.13585319
-0.9218123,1.0680492,-2.445967,-3.8635833,2.2151399,-4.552497,7.376851,-4.470028,-6.2940435,-3.7144756,-5.0495677,-10.460346,-12.5872555,-17.27127,4.3154263,7.7330375,-7.260025,-5.394781,5.7736588,-0.595308
-2.965479,-1.609791,-1.1706152,4.878844,-2.354682,-8.159559,8.567398,2.4184816,-5.206775,-2.884713,-3.1080368,-11.460431,0.7394205,-11.245225,-6.3386636,-4.491988,-17.230522,2.2410302,0.43359515,-12.876119
-1.9052671,1.7188054,-0.1511439,1.8316597,-1.9194169,-2.4036174,-2.8270237,-1.6352204,-3.704787,-2.6886458,-3.1084912,-23.957531,0.89589983,-4.3004727,10.870011,6.665237,-3.6980965,-2.1243854,1.7008327,-5.3374567
-2.4102633,-0.35244003,1.2040094,-0.8834159,0.68564427,0.4327915,-1.8450565,-0.44846144,-4.3808393,2.705773,-4.934764,3.7058659,-0.37836254,-4.2960296,-0.89589036,4.205355,-7.676028,12.992395,2.6132047,-1.9852219
0.110910155,1.6030997,-1.8378634,6.8601704,-4.3720984,-5.6788673,-4.365977,-0.7892196,-7.3721385,4.598486,1.2455213,2.7949579,0.9853333,-4.6230674,-9.192654,2.6658964,-13.455697,-0.06700609,-4.217697,5.28942
3.2409863,-1.2519633,-4.8189607,-5.4123545,-0.5304084,-2.4482963,0.2587735,-5.2419953,-7.4322677,3.202265,-9.824061,-6.9453597,-3.2674935,-1.5388465,-9.628257,-5.97545,-8.462178,5.5132627,-0.84277964,-4.2394633
0.5851023,-2.4692717,-5.1408896,-2.8522668,7.196608,0.6748874,-2.8540885,7.976195,-5.198729,-5.1852074,-2.9682105,8.403659,-3.4623396,0.31230253,2.6880784,-2.8366323,-4.945318,0.8162679,-12.242597,4.71022
-4.0729647,-2.163339,2.1418967,0.52701604,-6.6635985,-2.0403762,-5.491043,-3.5199752,4.9511886,-3.7166972,-8.354718,11.203195,0.80921054,8.604768,12.669923,1.0520884,-8.9652,-3.843851,7.519064,-3.9034014
0.87263626,-0.01704533,-0.846271,-1.7209909,-3.9979951,6.3106103,8.041289,-0.19028403,-1.7971392,-1.422483,-0.38899952,-4.3241115,-1.7582233,0.1731593,-7.148955,5.5104055,-2.5050356,2.6772015,2.7823036,-5.2311387
0.16917701,1.4197298,-1.5220652,3.6709366,-5.717059,-6.9315042,-3.0391748,-2.219008,-0.9577182,10.036552,0.7983876,0.4178561,-6.9659677,6.0559587,3.8304887,-4.945701,-6.07868,-2.786721,-11.932001,-4.1376214